<?xml version="1.0"?>
<opencv_storage>
<stage6>
  <maxWeakCount>13</maxWeakCount>
  <stageThreshold>-4.1054010391235352e-001</stageThreshold>
  <weakClassifiers>
    <_>
      <internalNodes>
        0 -1 52413 -790529 859041783 -269004881 -881340677 -276828161
        -277614593 -268447873 -272905477</internalNodes>
      <leafValues>
        -3.4200000762939453e-001 8.7360000610351563e-001</leafValues></_>
    <_>
      <internalNodes>
        0 -1 156372 2136871199 1531659603 -272534369 -71411385
        1514081167 -538661 -224625752 -81117314</internalNodes>
      <leafValues>
        -6.1319547891616821e-001 5.7742953300476074e-001</leafValues></_>
    <_>
      <internalNodes>
        0 -1 30109 -2113737 -33574049 96575354 -544105327 -932862545
        -105827941 1581578681 609598399</internalNodes>
      <leafValues>
        -5.8337658643722534e-001 5.5909895896911621e-001</leafValues></_>
    <_>
      <internalNodes>
        0 -1 134467 -136841735 -1079381526 -1534929516 1291972816
        -1315311371 -2008814341 1220931837 -842022725</internalNodes>
      <leafValues>
        -5.1136136054992676e-001 5.9872233867645264e-001</leafValues></_>
    <_>
      <internalNodes>
        0 -1 121845 -1828134951 -1214331472 -573181451 1541379293
        -1075856897 -1342246916 259763709 -1996935848</internalNodes>
      <leafValues>
        -5.4001915454864502e-001 6.0488963127136230e-001</leafValues></_>
    <_>
      <internalNodes>
        0 -1 151295 -16818209 1533790331 2130705620 284360445 -16855608
        -760496423 -67681 -608436301</internalNodes>
      <leafValues>
        -5.5349868535995483e-001 6.0894256830215454e-001</leafValues></_>
    <_>
      <internalNodes>
        0 -1 16604 -1018170625 -2003910505 -2058107326 -928062730
        -941763585 -1195650839 1366098160 -1027936158</internalNodes>
      <leafValues>
        -6.1537921428680420e-001 5.3079819679260254e-001</leafValues></_>
    <_>
      <internalNodes>
        0 -1 12428 -374382793 -1363607809 -352387145 -1428488278
        -8391057 -306647169 -278462465 -1426915594</internalNodes>
      <leafValues>
        -5.2666628360748291e-001 6.1457544565200806e-001</leafValues></_>
    <_>
      <internalNodes>
        0 -1 98543 1560337916 -579119639 -1183559205 -44755745
        -939463686 -1430826580 598940987 798165154</internalNodes>
      <leafValues>
        -7.4818700551986694e-001 4.7397288680076599e-001</leafValues></_>
    <_>
      <internalNodes>
        0 -1 139815 -491004165 -202703424 -1961755053 -791291503
        -2135176961 -1070429973 -1055662369 -610282049</internalNodes>
      <leafValues>
        -5.0094330310821533e-001 7.0305067300796509e-001</leafValues></_>
    <_>
      <internalNodes>
        0 -1 57356 -554175758 -552632918 1334927698 -169899695
        -1269825636 -1425333496 1464329143 1196405818</internalNodes>
      <leafValues>
        -6.9375461339950562e-001 5.1648712158203125e-001</leafValues></_>
    <_>
      <internalNodes>
        0 -1 51860 -105038209 -1073805637 1996469623 -167784328
        -823811905 -2130737057 -188776898 -1105474497</internalNodes>
      <leafValues>
        -5.7120788097381592e-001 6.0766488313674927e-001</leafValues></_>
    <_>
      <internalNodes>
        0 -1 125062 -614728742 -1524070752 -791555880 1535184904
        -23348998 -1894916951 -1945896717 -1880231208</internalNodes>
      <leafValues>
        -6.5912526845932007e-001 5.1303517818450928e-001</leafValues></_></weakClassifiers></stage6>
</opencv_storage>
