<?xml version="1.0"?>
<opencv_storage>
<cascade>
  <stageType>BOOST</stageType>
  <featureType>LBP</featureType>
  <height>50</height>
  <width>50</width>
  <stageParams>
    <boostType>GAB</boostType>
    <minHitRate>9.9900001287460327e-001</minHitRate>
    <maxFalseAlarm>1.0000000149011612e-001</maxFalseAlarm>
    <weightTrimRate>9.4999999999999996e-001</weightTrimRate>
    <maxDepth>1</maxDepth>
    <maxWeakCount>100</maxWeakCount></stageParams>
  <featureParams>
    <maxCatCount>256</maxCatCount>
    <featSize>1</featSize></featureParams>
  <stageNum>10</stageNum>
  <stages>
    <!-- stage 0 -->
    <_>
      <maxWeakCount>14</maxWeakCount>
      <stageThreshold>-8.6737579107284546e-001</stageThreshold>
      <weakClassifiers>
        <_>
          <internalNodes>
            0 -1 142 -100926534 -71606598 -16777541 -103288013
            -823132229 -1090520517 -285233473 150731451</internalNodes>
          <leafValues>
            -5.7824426889419556e-001 8.2274591922760010e-001</leafValues></_>
        <_>
          <internalNodes>
            0 -1 121 -750529797 -641138480 26579803 1427215251
            -876489798 -586522440 550023899 -611077381</internalNodes>
          <leafValues>
            -4.4528439640998840e-001 8.1607151031494141e-001</leafValues></_>
        <_>
          <internalNodes>
            0 -1 38 -873993505 28462322 -285284353 154402487 -834164134
            174182089 -2021931317 185858987</internalNodes>
          <leafValues>
            -5.3108632564544678e-001 6.2343305349349976e-001</leafValues></_>
        <_>
          <internalNodes>
            0 -1 131 -581960885 1602332872 1405952699 1373197433
            1661729594 1548261888 848016367 1528029419</internalNodes>
          <leafValues>
            -4.9555170536041260e-001 5.8784955739974976e-001</leafValues></_>
        <_>
          <internalNodes>
            0 -1 26 -726016577 -578958177 1086249177 1367431353
            -1863039589 -2060974072 -862019905 -552943093</internalNodes>
          <leafValues>
            -3.7543410062789917e-001 7.0201516151428223e-001</leafValues></_>
        <_>
          <internalNodes>
            0 -1 84 2121188255 869306826 121673397 -798438502 -634479091
            56279353 -1467244034 -87490952</internalNodes>
          <leafValues>
            -5.4645562171936035e-001 4.9505662918090820e-001</leafValues></_>
        <_>
          <internalNodes>
            0 -1 28 -473700406 -208681530 1343775474 1653830029
            1140900398 50336839 1646457291 1414394187</internalNodes>
          <leafValues>
            -6.7083269357681274e-001 4.0064373612403870e-001</leafValues></_>
        <_>
          <internalNodes>
            0 -1 68 -278930718 -548533726 1885532851 1471805843
            -1932850976 -833634303 6465459 -619752521</internalNodes>
          <leafValues>
            -4.8746261000633240e-001 5.4431742429733276e-001</leafValues></_>
        <_>
          <internalNodes>
            0 -1 67 -574304032 -1786232492 -536784754 -2108597989
            -939450086 -771620731 151931355 790177885</internalNodes>
          <leafValues>
            -6.0670614242553711e-001 4.3034082651138306e-001</leafValues></_>
        <_>
          <internalNodes>
            0 -1 155 -751049509 272977937 -430726051 1532190534
            1558023183 -2004117292 -908738337 1243345627</internalNodes>
          <leafValues>
            -4.9582645297050476e-001 5.3379315137863159e-001</leafValues></_>
        <_>
          <internalNodes>
            0 -1 166 -1098911057 1936324534 -1359026478 -659669005
            2138566431 1409269622 1593769722 -83953089</internalNodes>
          <leafValues>
            -4.7334018349647522e-001 5.2955722808837891e-001</leafValues></_>
        <_>
          <internalNodes>
            0 -1 65 -788472646 -664368644 -1351357705 2146377727
            1678009816 -1896987394 -1909393481 925050543</internalNodes>
          <leafValues>
            -4.5779719948768616e-001 5.5319631099700928e-001</leafValues></_>
        <_>
          <internalNodes>
            0 -1 51 -591180581 -139527452 1090071167 379171573 172018378
            -1433722240 1409929435 -551825025</internalNodes>
          <leafValues>
            -4.2003571987152100e-001 5.9079754352569580e-001</leafValues></_>
        <_>
          <internalNodes>
            0 -1 158 -1129331678 461504768 -2046820006 2064007312
            -661938070 229249060 1529410010 -665856871</internalNodes>
          <leafValues>
            -5.2073091268539429e-001 4.9223995208740234e-001</leafValues></_></weakClassifiers></_>
    <!-- stage 1 -->
    <_>
      <maxWeakCount>16</maxWeakCount>
      <stageThreshold>-8.9757144451141357e-001</stageThreshold>
      <weakClassifiers>
        <_>
          <internalNodes>
            0 -1 110 -59172 -2548324 -1 -108060865 -16990721 -339769666
            -81921 -1978889538</internalNodes>
          <leafValues>
            -5.1782178878784180e-001 7.6532661914825439e-001</leafValues></_>
        <_>
          <internalNodes>
            0 -1 99 -207618083 288991440 -572697315 433979261
            -1599340648 -1195574274 211750024 -1684165217</internalNodes>
          <leafValues>
            -4.2342379689216614e-001 7.5398302078247070e-001</leafValues></_>
        <_>
          <internalNodes>
            0 -1 36 -138677798 -882397272 -134229677 -650676843
            -852829782 -1887043734 369611259 -544222050</internalNodes>
          <leafValues>
            -4.0262544155120850e-001 7.0314985513687134e-001</leafValues></_>
        <_>
          <internalNodes>
            0 -1 135 -114321989 1929356018 792689947 1885846143
            -352323509 1828395066 2134785339 -93200645</internalNodes>
          <leafValues>
            -4.3915146589279175e-001 5.8075082302093506e-001</leafValues></_>
        <_>
          <internalNodes>
            0 -1 49 -167819045 -236240670 4719378 1430475735 -1796743544
            -804642816 1439692751 -249824817</internalNodes>
          <leafValues>
            -4.2737320065498352e-001 5.7048255205154419e-001</leafValues></_>
        <_>
          <internalNodes>
            0 -1 156 -672018029 1933459507 872534073 -26774535
            -972063186 -2012610030 -951782728 1330641151</internalNodes>
          <leafValues>
            -4.2605048418045044e-001 5.3885734081268311e-001</leafValues></_>
        <_>
          <internalNodes>
            0 -1 88 -593626550 1926555750 1140891620 -1072828203
            -1141968758 -1157070810 -2004165893 -333526897</internalNodes>
          <leafValues>
            -5.3326356410980225e-001 3.9994958043098450e-001</leafValues></_>
        <_>
          <internalNodes>
            0 -1 138 -143991282 -555072770 273935614 1075432958
            -67153764 -1692886423 -2003240194 -636857365</internalNodes>
          <leafValues>
            -4.6182283759117126e-001 4.7852808237075806e-001</leafValues></_>
        <_>
          <internalNodes>
            0 -1 127 -1087165257 1000336729 -657243913 -1701011874
            2065238890 2143005604 317135740 -123152936</internalNodes>
          <leafValues>
            -5.8573246002197266e-001 3.6334896087646484e-001</leafValues></_>
        <_>
          <internalNodes>
            0 -1 50 -654318530 -1220976102 1076908465 929242835
            -1677963596 -771224554 1413136303 -249826593</internalNodes>
          <leafValues>
            -4.1721227765083313e-001 5.6335580348968506e-001</leafValues></_>
        <_>
          <internalNodes>
            0 -1 162 -350694308 511001734 -1738517609 1381057349
            893539097 -753254260 -913775877 1260586443</internalNodes>
          <leafValues>
            -5.5159378051757813e-001 4.2347002029418945e-001</leafValues></_>
        <_>
          <internalNodes>
            0 -1 60 -14953314 2041251208 270581985 394358801 -1828672954
            -2011168632 92719358 1264311279</internalNodes>
          <leafValues>
            -4.8711016774177551e-001 4.7526064515113831e-001</leafValues></_>
        <_>
          <internalNodes>
            0 -1 184 -660963174 924435144 289636667 1565754372 34193458
            161988644 126391450 -585249713</internalNodes>
          <leafValues>
            -4.8060688376426697e-001 4.8033115267753601e-001</leafValues></_>
        <_>
          <internalNodes>
            0 -1 159 -258077941 1892946318 -1870658637 6115603
            1254850319 -217173446 -920996917 -661890762</internalNodes>
          <leafValues>
            -5.5655765533447266e-001 4.2058873176574707e-001</leafValues></_>
        <_>
          <internalNodes>
            0 -1 47 -250097444 -1363796 -711499781 -203861292
            -1325207382 -2033278726 -1692569925 -581967767</internalNodes>
          <leafValues>
            -4.0388938784599304e-001 6.0520869493484497e-001</leafValues></_>
        <_>
          <internalNodes>
            0 -1 37 -1067989782 -243711587 -783182132 -680405926
            -343137313 1665894476 -862270869 1135746417</internalNodes>
          <leafValues>
            -5.9895330667495728e-001 4.1597369313240051e-001</leafValues></_></weakClassifiers></_>
    <!-- stage 2 -->
    <_>
      <maxWeakCount>17</maxWeakCount>
      <stageThreshold>-6.5077704191207886e-001</stageThreshold>
      <weakClassifiers>
        <_>
          <internalNodes>
            0 -1 141 -67109957 -1153712205 -16777285 -134217797
            -51384389 -16793677 -285225473 -2131774533</internalNodes>
          <leafValues>
            -4.1435986757278442e-001 8.0206072330474854e-001</leafValues></_>
        <_>
          <internalNodes>
            0 -1 34 -77857153 -4305665 555888891 -148114755 -285302529
            -862191424 2130876671 -882930465</internalNodes>
          <leafValues>
            -3.6197683215141296e-001 7.9603588581085205e-001</leafValues></_>
        <_>
          <internalNodes>
            0 -1 130 -540942341 -586626360 1348432891 1436373849
            -11891989 -901186614 838448091 -538971397</internalNodes>
          <leafValues>
            -3.6516848206520081e-001 7.0597362518310547e-001</leafValues></_>
        <_>
          <internalNodes>
            0 -1 2 -591398697 -138412577 1358549083 1344016639 -9939425
            923471108 1988091519 1024053023</internalNodes>
          <leafValues>
            -4.7306948900222778e-001 4.9890184402465820e-001</leafValues></_>
        <_>
          <internalNodes>
            0 -1 82 -4569893 -75802098 1478532061 1594429985 -1943925688
            -619837360 738787323 1801611839</internalNodes>
          <leafValues>
            -5.0993746519088745e-001 4.1614201664924622e-001</leafValues></_>
        <_>
          <internalNodes>
            0 -1 52 -937696517 -1085447454 372914 81089278 134937251
            -1676908406 289929775 1409807871</internalNodes>
          <leafValues>
            -5.0926524400711060e-001 4.0615770220756531e-001</leafValues></_>
        <_>
          <internalNodes>
            0 -1 30 -1396802817 1721678957 371212374 81808242 -607129842
            2041047353 -1766662209 -124059911</internalNodes>
          <leafValues>
            -4.8660621047019958e-001 4.2249354720115662e-001</leafValues></_>
        <_>
          <internalNodes>
            0 -1 115 -556085522 -183739299 403752534 1415181337
            -879301924 -865291204 1213194271 -637341142</internalNodes>
          <leafValues>
            -5.0513112545013428e-001 4.1891342401504517e-001</leafValues></_>
        <_>
          <internalNodes>
            0 -1 118 -3801512 1529583037 -602882859 488047039 -608458158
            1775577128 -626070035 527946394</internalNodes>
          <leafValues>
            -4.7904065251350403e-001 4.3603944778442383e-001</leafValues></_>
        <_>
          <internalNodes>
            0 -1 12 -402655254 1942415275 -345648190 -967385444
            2139841564 128176267 -761122185 1952367486</internalNodes>
          <leafValues>
            -6.6947972774505615e-001 3.0389076471328735e-001</leafValues></_>
        <_>
          <internalNodes>
            0 -1 4 -484224513 -227082246 -822412609 -2140733708
            -940755313 -1093468227 2063466473 -155262989</internalNodes>
          <leafValues>
            -4.1657188534736633e-001 4.9576374888420105e-001</leafValues></_>
        <_>
          <internalNodes>
            0 -1 122 -159916851 -604946023 1423265875 -250478334
            1544999663 -301334774 -932056723 -603720773</internalNodes>
          <leafValues>
            -3.4544616937637329e-001 5.7975101470947266e-001</leafValues></_>
        <_>
          <internalNodes>
            0 -1 45 -2651994 1628801116 -264105910 -153628387 1933698690
            1930015144 -343212293 1897250415</internalNodes>
          <leafValues>
            -5.3246968984603882e-001 3.9751851558685303e-001</leafValues></_>
        <_>
          <internalNodes>
            0 -1 164 -13121326 -199241276 537268663 1880840465 38337922
            -1201614703 541267999 2035144191</internalNodes>
          <leafValues>
            -4.5069280266761780e-001 4.4863086938858032e-001</leafValues></_>
        <_>
          <internalNodes>
            0 -1 70 -378909613 -50693825 1990258685 992631019
            -1080942899 -1101760129 -253965313 -769996973</internalNodes>
          <leafValues>
            -4.1962504386901855e-001 5.0184267759323120e-001</leafValues></_>
        <_>
          <internalNodes>
            0 -1 56 -1242409940 -776449014 876764826 603996063 -82048503
            1431900170 -485827379 743478631</internalNodes>
          <leafValues>
            -6.5694344043731689e-001 3.2244119048118591e-001</leafValues></_>
        <_>
          <internalNodes>
            0 -1 145 1831695999 -15938684 -147424548 1216087518
            1001830315 637582173 197131263 -590750850</internalNodes>
          <leafValues>
            -4.5538416504859924e-001 4.8621281981468201e-001</leafValues></_></weakClassifiers></_>
    <!-- stage 3 -->
    <_>
      <maxWeakCount>18</maxWeakCount>
      <stageThreshold>-4.1144779324531555e-001</stageThreshold>
      <weakClassifiers>
        <_>
          <internalNodes>
            0 -1 101 352640479 -2277923 -176816649 -33704199 -682229777
            -4210966 -1082282017 -1431590674</internalNodes>
          <leafValues>
            -3.6694213747978210e-001 8.0670392513275146e-001</leafValues></_>
        <_>
          <internalNodes>
            0 -1 23 -663713601 -12908539 1344406719 -8497393 -368917313
            -12613075 336805887 -12118513</internalNodes>
          <leafValues>
            -3.3146470785140991e-001 7.7236235141754150e-001</leafValues></_>
        <_>
          <internalNodes>
            0 -1 160 -269756621 1915976497 -320077889 -109052041
            -285302945 -8421577 -1964052741 -864030149</internalNodes>
          <leafValues>
            -3.3210268616676331e-001 6.8665993213653564e-001</leafValues></_>
        <_>
          <internalNodes>
            0 -1 32 -290729990 -288359000 -402720799 -644877827
            1225195199 -2028994646 75752919 -540025668</internalNodes>
          <leafValues>
            -4.2266514897346497e-001 5.3777843713760376e-001</leafValues></_>
        <_>
          <internalNodes>
            0 -1 108 1021837305 182821261 1546777427 -2099463426
            -1135678893 -1102459585 2132669430 -319491852</internalNodes>
          <leafValues>
            -5.7893949747085571e-001 3.4875294566154480e-001</leafValues></_>
        <_>
          <internalNodes>
            0 -1 173 -25207211 -629256165 -598214087 1880019413
            1566328834 -702872973 -1468356897 -378349061</internalNodes>
          <leafValues>
            -4.2050650715827942e-001 4.8143026232719421e-001</leafValues></_>
        <_>
          <internalNodes>
            0 -1 19 -201373897 -173033985 1009760788 -168582289
            -1908480017 -1607429004 -1140879557 -59113537</internalNodes>
          <leafValues>
            -3.4402000904083252e-001 6.0541707277297974e-001</leafValues></_>
        <_>
          <internalNodes>
            0 -1 143 -556093893 1325109847 942234667 42926559 -63198337
            386507787 -1964199106 11321279</internalNodes>
          <leafValues>
            -6.5768516063690186e-001 3.2177525758743286e-001</leafValues></_>
        <_>
          <internalNodes>
            0 -1 137 1135337571 -1613893522 374862007 1465252025
            -1069063318 -573659261 1382019419 -540151060</internalNodes>
          <leafValues>
            -3.9774519205093384e-001 5.0706207752227783e-001</leafValues></_>
        <_>
          <internalNodes>
            0 -1 91 -707728000 -538759088 -998743245 1456166779
            1808881643 -356859733 161629821 597821594</internalNodes>
          <leafValues>
            -5.4356426000595093e-001 3.6048656702041626e-001</leafValues></_>
        <_>
          <internalNodes>
            0 -1 126 -1627276396 1845959033 -276701843 835524861
            864986678 1035975190 286289075 -1727423431</internalNodes>
          <leafValues>
            -5.1106303930282593e-001 3.7350004911422729e-001</leafValues></_>
        <_>
          <internalNodes>
            0 -1 10 649820913 -828506442 1851397395 247617134 189397995
            -399523235 342245573 420660436</internalNodes>
          <leafValues>
            -6.0025620460510254e-001 3.3732509613037109e-001</leafValues></_>
        <_>
          <internalNodes>
            0 -1 41 -1881442497 750714839 1221839942 1750905540
            1902080858 -1346114589 1403543392 -123797804</internalNodes>
          <leafValues>
            -5.1868891716003418e-001 3.7950819730758667e-001</leafValues></_>
        <_>
          <internalNodes>
            0 -1 64 1443518058 -81054468 1298155655 878666495 -653873365
            -1487672792 -1076257441 2132611542</internalNodes>
          <leafValues>
            -5.1572710275650024e-001 4.0307927131652832e-001</leafValues></_>
        <_>
          <internalNodes>
            0 -1 46 -1375271150 -1145854445 -1235733347 -1736639561
            -2105046050 2022893977 663444469 -52504580</internalNodes>
          <leafValues>
            -4.9532124400138855e-001 3.8226562738418579e-001</leafValues></_>
        <_>
          <internalNodes>
            0 -1 72 797797856 -97062906 2102481373 1146463920 2046091368
            -1684954992 1503205069 1606926804</internalNodes>
          <leafValues>
            -5.9127128124237061e-001 3.3555802702903748e-001</leafValues></_>
        <_>
          <internalNodes>
            0 -1 59 -1492127961 -299526889 -426841433 1648593086
            -1894596306 1066118665 -553131121 -352591634</internalNodes>
          <leafValues>
            -5.0372833013534546e-001 4.2013677954673767e-001</leafValues></_>
        <_>
          <internalNodes>
            0 -1 100 -1651976708 -284847650 16917989 -211988043
            781226077 1918896811 -2130083249 1026232186</internalNodes>
          <leafValues>
            -5.1513445377349854e-001 4.0764671564102173e-001</leafValues></_></weakClassifiers></_>
    <!-- stage 4 -->
    <_>
      <maxWeakCount>27</maxWeakCount>
      <stageThreshold>-7.5104135274887085e-001</stageThreshold>
      <weakClassifiers>
        <_>
          <internalNodes>
            0 -1 73 1493209596 -71345480 2142961663 1602166527
            -146761474 -1141237038 -542458881 800729786</internalNodes>
          <leafValues>
            -4.9462914466857910e-001 7.3349815607070923e-001</leafValues></_>
        <_>
          <internalNodes>
            0 -1 109 -116426981 -12605673 2134863679 -2147786 -25182209
            -822362445 -8388673 -319570757</internalNodes>
          <leafValues>
            -4.4173598289489746e-001 6.8172222375869751e-001</leafValues></_>
        <_>
          <internalNodes>
            0 -1 113 1441780223 -640042517 85791063 366156115
            -1904239878 -895833414 482320077 -1684292677</internalNodes>
          <leafValues>
            -3.3432146906852722e-001 6.5524047613143921e-001</leafValues></_>
        <_>
          <internalNodes>
            0 -1 80 -1093666885 -572825096 234090984 1022833184
            193788743 -1179520920 596638585 1002043936</internalNodes>
          <leafValues>
            -4.7373148798942566e-001 4.2909398674964905e-001</leafValues></_>
        <_>
          <internalNodes>
            0 -1 62 2137945973 -19332985 1065365491 661914069 -315214985
            2057536474 200460739 -320937218</internalNodes>
          <leafValues>
            -4.4910335540771484e-001 4.2517304420471191e-001</leafValues></_>
        <_>
          <internalNodes>
            0 -1 95 -1211722753 -2016423213 1167476925 -1295608923
            -1874906861 -1081365125 -1327145987 -269821188</internalNodes>
          <leafValues>
            -4.3252903223037720e-001 4.3638339638710022e-001</leafValues></_>
        <_>
          <internalNodes>
            0 -1 150 -357838086 -71247632 -1619443247 -850541455
            -1702167814 -877150031 1091806706 -548416417</internalNodes>
          <leafValues>
            -3.5577735304832458e-001 5.1366484165191650e-001</leafValues></_>
        <_>
          <internalNodes>
            0 -1 163 -360454352 37039065 513189359 207217083 2062248466
            -1069885322 -635868640 1325201455</internalNodes>
          <leafValues>
            -6.6505604982376099e-001 2.7168157696723938e-001</leafValues></_>
        <_>
          <internalNodes>
            0 -1 75 -460825712 -19211490 263085211 -1764812588
            -1132430624 -887569827 -368398885 670908071</internalNodes>
          <leafValues>
            -5.0149554014205933e-001 3.3988034725189209e-001</leafValues></_>
        <_>
          <internalNodes>
            0 -1 85 -273946901 -546901383 139067135 1366757561
            -347410240 -1693806012 2051915480 -740846701</internalNodes>
          <leafValues>
            -3.2612031698226929e-001 5.0853127241134644e-001</leafValues></_>
        <_>
          <internalNodes>
            0 -1 13 -22042262 -1351756663 1376997874 -218953571
            1972393598 2063688776 1998713506 1951788655</internalNodes>
          <leafValues>
            -6.0713368654251099e-001 2.8166025876998901e-001</leafValues></_>
        <_>
          <internalNodes>
            0 -1 123 -25447348 452711247 723001997 -608603490 1753333342
            2062600900 1384177734 1541330229</internalNodes>
          <leafValues>
            -4.9756699800491333e-001 2.9188254475593567e-001</leafValues></_>
        <_>
          <internalNodes>
            0 -1 11 2131710182 -1903995446 1640338666 -293681354
            1608400860 587976506 862209232 1164893127</internalNodes>
          <leafValues>
            -5.7793259620666504e-001 2.3742784559726715e-001</leafValues></_>
        <_>
          <internalNodes>
            0 -1 134 -1095232615 666838430 861271997 930027461 977990967
            1923582775 783784061 -1116959956</internalNodes>
          <leafValues>
            -4.6118116378784180e-001 3.0473989248275757e-001</leafValues></_>
        <_>
          <internalNodes>
            0 -1 58 -441812400 -1824786973 352764516 1681038250 18440
            -1008040574 -2043830017 1156586239</internalNodes>
          <leafValues>
            -5.8157563209533691e-001 2.2093425691127777e-001</leafValues></_>
        <_>
          <internalNodes>
            0 -1 94 340024565 578204799 -531527049 684332913 -1189072557
            1918050432 -1747290761 -1498404560</internalNodes>
          <leafValues>
            -5.6566935777664185e-001 2.1599733829498291e-001</leafValues></_>
        <_>
          <internalNodes>
            0 -1 132 -807742536 1599246376 10076184 -2047236912
            -1726957437 329885868 701283631 -582104689</internalNodes>
          <leafValues>
            -3.4801083803176880e-001 3.6201488971710205e-001</leafValues></_>
        <_>
          <internalNodes>
            0 -1 172 -1978928390 -811695952 277569777 -1054355183
            868438199 1086218762 1321937683 -841491217</internalNodes>
          <leafValues>
            -3.7498372793197632e-001 3.2112118601799011e-001</leafValues></_>
        <_>
          <internalNodes>
            0 -1 117 -720025596 -129793068 -179260198 1313562011
            -800403452 -1263451120 978776827 1345583791</internalNodes>
          <leafValues>
            -5.4971265792846680e-001 2.0433868467807770e-001</leafValues></_>
        <_>
          <internalNodes>
            0 -1 69 -1947469182 -225805920 -987988429 87937077
            -880190853 -1896930582 134058206 -413156673</internalNodes>
          <leafValues>
            -2.9241567850112915e-001 3.6165529489517212e-001</leafValues></_>
        <_>
          <internalNodes>
            0 -1 167 -370165933 1083153434 -553331236 277222110
            -880060094 1344473347 2055648138 -1171702819</internalNodes>
          <leafValues>
            -4.1092920303344727e-001 2.4106436967849731e-001</leafValues></_>
        <_>
          <internalNodes>
            0 -1 89 -45023815 -67257092 -1110466561 -536912641
            -1357840391 -67338244 305838046 -1145329112</internalNodes>
          <leafValues>
            -1.6093292832374573e-001 5.7148349285125732e-001</leafValues></_>
        <_>
          <internalNodes>
            0 -1 186 -617216555 28111738 1073655531 -1083417730
            1189600660 1616205823 2139076633 -2109014703</internalNodes>
          <leafValues>
            -2.9149153828620911e-001 3.0940315127372742e-001</leafValues></_>
        <_>
          <internalNodes>
            0 -1 54 -410821942 -1218711520 353792002 1420038157
            1246659170 12748930 77820904 1347872780</internalNodes>
          <leafValues>
            -5.2115023136138916e-001 1.5802142024040222e-001</leafValues></_>
        <_>
          <internalNodes>
            0 -1 105 503859252 -1745840875 -385841506 -1026881904
            1476131660 681091562 -2070605985 738076987</internalNodes>
          <leafValues>
            -4.7300687432289124e-001 1.6004118323326111e-001</leafValues></_>
        <_>
          <internalNodes>
            0 -1 187 -196756613 -658776130 -1142228332 2134276268
            729386970 1971007351 1865914275 -1008920475</internalNodes>
          <leafValues>
            -2.0784205198287964e-001 3.5156744718551636e-001</leafValues></_>
        <_>
          <internalNodes>
            0 -1 14 1974273028 714940568 -657200528 -489340193 817990417
            1160350104 2035231741 -1937710599</internalNodes>
          <leafValues>
            -4.7466641664505005e-001 1.6605822741985321e-001</leafValues></_></weakClassifiers></_>
    <!-- stage 5 -->
    <_>
      <maxWeakCount>20</maxWeakCount>
      <stageThreshold>-6.7090708017349243e-001</stageThreshold>
      <weakClassifiers>
        <_>
          <internalNodes>
            0 -1 79 -1147622721 -67322881 -578550789 -671044423
            -1388631297 -84105025 -604786689 -7853329</internalNodes>
          <leafValues>
            -3.8393253087997437e-001 7.6461166143417358e-001</leafValues></_>
        <_>
          <internalNodes>
            0 -1 96 12268543 993998847 259981311 -4522306 670515199
            -134250753 1297407965 -1433761656</internalNodes>
          <leafValues>
            -4.9527499079704285e-001 5.5147510766983032e-001</leafValues></_>
        <_>
          <internalNodes>
            0 -1 48 -36193637 -159815 -847832917 -642036069 -868317538
            -1997304794 -851592257 -838873169</internalNodes>
          <leafValues>
            -3.6479136347770691e-001 6.5846598148345947e-001</leafValues></_>
        <_>
          <internalNodes>
            0 -1 175 -4464645 -812854592 273994691 -539626340
            -1347946241 -1409122102 121894799 -536882689</internalNodes>
          <leafValues>
            -2.8951567411422729e-001 6.9076162576675415e-001</leafValues></_>
        <_>
          <internalNodes>
            0 -1 16 -405800978 -1360537809 1188198912 -93398538
            -1586806015 1161016260 1879527539 2010609118</internalNodes>
          <leafValues>
            -6.6442698240280151e-001 3.0319252610206604e-001</leafValues></_>
        <_>
          <internalNodes>
            0 -1 106 605093887 -85140232 666877815 -547400276
            -1183155461 -2228548 1000898542 -1364411972</internalNodes>
          <leafValues>
            -3.8362288475036621e-001 5.2211958169937134e-001</leafValues></_>
        <_>
          <internalNodes>
            0 -1 66 -226833671 1658011717 148036759 -2142181289
            1871332951 405946627 2015165095 1295646703</internalNodes>
          <leafValues>
            -5.8888465166091919e-001 3.1608483195304871e-001</leafValues></_>
        <_>
          <internalNodes>
            0 -1 78 -611265636 -1394961963 -157256238 -841235363
            -112693421 2033170847 -1958893707 -741472193</internalNodes>
          <leafValues>
            -4.5771950483322144e-001 4.1340520977973938e-001</leafValues></_>
        <_>
          <internalNodes>
            0 -1 20 -285213718 1777189774 -1089251696 -2167868
            -1793531426 -811612607 1652626903 1373044678</internalNodes>
          <leafValues>
            -5.2231550216674805e-001 3.7444308400154114e-001</leafValues></_>
        <_>
          <internalNodes>
            0 -1 170 -91786301 1397283970 602494319 274198012 1761805107
            1852969182 1043561882 -750076934</internalNodes>
          <leafValues>
            -5.0063860416412354e-001 3.9607745409011841e-001</leafValues></_>
        <_>
          <internalNodes>
            0 -1 8 -1443437385 585562594 1309113608 -2111511886
            1532585851 -1004811786 1054243838 -1372788172</internalNodes>
          <leafValues>
            -6.0604751110076904e-001 3.3413428068161011e-001</leafValues></_>
        <_>
          <internalNodes>
            0 -1 90 -145204112 -820232040 438339699 137368588
            -1693917494 -1342142462 672217975 1460871163</internalNodes>
          <leafValues>
            -6.3003361225128174e-001 3.1678748130798340e-001</leafValues></_>
        <_>
          <internalNodes>
            0 -1 178 -591400102 1539797100 1128878832 1397604763
            -1814078262 -45090194 1439621339 -807470889</internalNodes>
          <leafValues>
            -4.0795633196830750e-001 5.2464854717254639e-001</leafValues></_>
        <_>
          <internalNodes>
            0 -1 22 720302899 -2097893087 -879776826 1920709619
            684527111 1119009587 -1200972829 -120450771</internalNodes>
          <leafValues>
            -5.4456400871276855e-001 3.6928716301918030e-001</leafValues></_>
        <_>
          <internalNodes>
            0 -1 27 -1307611397 1365206747 470504439 -1315145809
            -477639307 1646975528 -1850916637 1426909312</internalNodes>
          <leafValues>
            -5.3566497564315796e-001 3.6979132890701294e-001</leafValues></_>
        <_>
          <internalNodes>
            0 -1 188 -1084525829 -111950463 101663735 -1790360321
            -715132786 2135915634 1511978367 -678496269</internalNodes>
          <leafValues>
            -3.5784953832626343e-001 5.8361732959747314e-001</leafValues></_>
        <_>
          <internalNodes>
            0 -1 15 -1687336080 894824512 264475923 1586433909
            -2083016678 1461086007 1238333663 530184018</internalNodes>
          <leafValues>
            -5.2668476104736328e-001 3.8791131973266602e-001</leafValues></_>
        <_>
          <internalNodes>
            0 -1 40 -2029022606 27960736 -2080158842 -153110500
            957848243 170265280 1136898661 1468257480</internalNodes>
          <leafValues>
            -5.3012675046920776e-001 3.9230573177337646e-001</leafValues></_>
        <_>
          <internalNodes>
            0 -1 114 1188059391 -1694191386 1271784097 1486879231
            2053812043 1456388640 535391163 -44184959</internalNodes>
          <leafValues>
            -4.6080261468887329e-001 4.4001069664955139e-001</leafValues></_>
        <_>
          <internalNodes>
            0 -1 98 -727688600 -1484649298 2092553157 -319822569
            527071095 -912675583 -216458757 669910861</internalNodes>
          <leafValues>
            -6.3919693231582642e-001 3.0969947576522827e-001</leafValues></_></weakClassifiers></_>
    <!-- stage 6 -->
    <_>
      <maxWeakCount>20</maxWeakCount>
      <stageThreshold>-4.2107501626014709e-001</stageThreshold>
      <weakClassifiers>
        <_>
          <internalNodes>
            0 -1 86 -930021889 -556212530 -10551297 -2122275 -1400328449
            -542144337 1284018175 1334640815</internalNodes>
          <leafValues>
            -3.3247423171997070e-001 7.5544661283493042e-001</leafValues></_>
        <_>
          <internalNodes>
            0 -1 152 -2624613 -2116677 -44696289 -713567585 -2115141
            -1107385927 -9323025 -573706769</internalNodes>
          <leafValues>
            -2.9938369989395142e-001 7.5981658697128296e-001</leafValues></_>
        <_>
          <internalNodes>
            0 -1 169 -23178401 1531862811 -1128451 -604014593 -536881669
            -2359425 -621118722 -97878082</internalNodes>
          <leafValues>
            -4.6229207515716553e-001 4.9969899654388428e-001</leafValues></_>
        <_>
          <internalNodes>
            0 -1 42 -562041601 -1074397421 -520818951 -785171663
            -385907976 -922777574 -864301329 -143135045</internalNodes>
          <leafValues>
            -3.1536844372749329e-001 6.3625818490982056e-001</leafValues></_>
        <_>
          <internalNodes>
            0 -1 146 -83900165 -679752995 1348041042 -1855991713
            -663041834 -1686421379 302185179 -29633569</internalNodes>
          <leafValues>
            -3.1794801354408264e-001 6.0396927595138550e-001</leafValues></_>
        <_>
          <internalNodes>
            0 -1 29 -237030089 -1747021895 1528871674 1207034843
            -1993556178 -1661724618 2080305147 -1392996433</internalNodes>
          <leafValues>
            -4.3810576200485229e-001 4.2344686388969421e-001</leafValues></_>
        <_>
          <internalNodes>
            0 -1 136 -1465349633 -638715660 -74372613 1878614781
            922809371 -1768691581 -2088134629 -1683223936</internalNodes>
          <leafValues>
            -4.2265170812606812e-001 4.2822483181953430e-001</leafValues></_>
        <_>
          <internalNodes>
            0 -1 182 -1561535641 -1667567706 711981759 212983679
            364242072 -1367345867 653778875 -33589424</internalNodes>
          <leafValues>
            -4.0117716789245605e-001 4.3985399603843689e-001</leafValues></_>
        <_>
          <internalNodes>
            0 -1 81 1566105588 1579914204 1103648460 -17049509
            -753136277 -1669343095 -231981705 744041618</internalNodes>
          <leafValues>
            -5.3835606575012207e-001 3.2984477281570435e-001</leafValues></_>
        <_>
          <internalNodes>
            0 -1 128 1495134559 -788423976 -1148846273 -44242471
            2086549234 467483076 -1865606082 -1079265069</internalNodes>
          <leafValues>
            -3.3128952980041504e-001 5.5796486139297485e-001</leafValues></_>
        <_>
          <internalNodes>
            0 -1 57 -26279837 1977551703 -767763477 1189365982
            -1285844684 -1704778363 -1728526491 -576153403</internalNodes>
          <leafValues>
            -4.7699478268623352e-001 3.8078284263610840e-001</leafValues></_>
        <_>
          <internalNodes>
            0 -1 125 1589181943 -489008 -1178931716 -168256423
            -1900467110 531563774 45874171 -1678014209</internalNodes>
          <leafValues>
            -3.3785620331764221e-001 5.6499338150024414e-001</leafValues></_>
        <_>
          <internalNodes>
            0 -1 1 -1383306373 2031063263 -2108495174 -324349298
            -95302067 272139325 1421226749 -88813332</internalNodes>
          <leafValues>
            -4.3496859073638916e-001 4.3760907649993896e-001</leafValues></_>
        <_>
          <internalNodes>
            0 -1 129 1002154427 -810952462 1297961240 -858929160
            1028512059 -573923694 -1060824587 -678180429</internalNodes>
          <leafValues>
            -3.9917650818824768e-001 4.7268605232238770e-001</leafValues></_>
        <_>
          <internalNodes>
            0 -1 171 -33613052 1557813468 -1274438478 -1849558830
            969865808 -31401726 -1475675262 1496382770</internalNodes>
          <leafValues>
            -5.8675998449325562e-001 3.3401072025299072e-001</leafValues></_>
        <_>
          <internalNodes>
            0 -1 185 -549717249 1591924424 -2103762729 -704970500
            -1435566869 -1950582660 -2124554500 -572537507</internalNodes>
          <leafValues>
            -3.2303142547607422e-001 6.0739308595657349e-001</leafValues></_>
        <_>
          <internalNodes>
            0 -1 93 -633284110 -105016932 -1000489079 -1111373467
            1795994512 -1700051544 397090175 403393525</internalNodes>
          <leafValues>
            -4.5399034023284912e-001 4.2159819602966309e-001</leafValues></_>
        <_>
          <internalNodes>
            0 -1 5 -1492255321 -1400130455 1510065664 -1736512794
            1918081879 -1606432199 1879942652 -195570531</internalNodes>
          <leafValues>
            -4.8410436511039734e-001 4.1128620505332947e-001</leafValues></_>
        <_>
          <internalNodes>
            0 -1 92 -1136656786 -269492901 1929671749 -581921650
            -387237795 -1279459141 -2088919122 -1960366513</internalNodes>
          <leafValues>
            -4.5216861367225647e-001 4.4393271207809448e-001</leafValues></_>
        <_>
          <internalNodes>
            0 -1 139 -795289829 337092796 1342457747 -344915576
            151751455 -610597704 769914695 1495192295</internalNodes>
          <leafValues>
            -4.8454114794731140e-001 4.1558963060379028e-001</leafValues></_></weakClassifiers></_>
    <!-- stage 7 -->
    <_>
      <maxWeakCount>19</maxWeakCount>
      <stageThreshold>-9.7072327136993408e-001</stageThreshold>
      <weakClassifiers>
        <_>
          <internalNodes>
            0 -1 97 -673189615 -1728318023 -570486507 -570425377 -73798
            -1157892099 1600101550 -1979842629</internalNodes>
          <leafValues>
            -2.7768987417221069e-001 7.7822577953338623e-001</leafValues></_>
        <_>
          <internalNodes>
            0 -1 102 -1618092033 -686179376 260832083 1528510971
            -573767681 -1108682536 -1148257285 -1682195798</internalNodes>
          <leafValues>
            -3.2815885543823242e-001 7.2979432344436646e-001</leafValues></_>
        <_>
          <internalNodes>
            0 -1 176 -975440539 826654993 -1072313357 -2116732013
            -68170963 -585119737 -1936880950 250608443</internalNodes>
          <leafValues>
            -4.9495676159858704e-001 4.5902699232101440e-001</leafValues></_>
        <_>
          <internalNodes>
            0 -1 74 1979471349 1476214231 -281124865 1061124391
            -134939658 -603988393 -139006530 -1447149945</internalNodes>
          <leafValues>
            -3.7485882639884949e-001 5.3436642885208130e-001</leafValues></_>
        <_>
          <internalNodes>
            0 -1 181 -1287917701 -307300176 582479461 1600372984
            -1356862465 -1959916297 1508360895 -607140387</internalNodes>
          <leafValues>
            -3.4731516242027283e-001 5.3803712129592896e-001</leafValues></_>
        <_>
          <internalNodes>
            0 -1 53 -84968725 1843880098 73885395 271806470 -1303385590
            -1049888640 1137139551 -682624025</internalNodes>
          <leafValues>
            -3.8257619738578796e-001 4.5958897471427917e-001</leafValues></_>
        <_>
          <internalNodes>
            0 -1 153 -1077941333 -2129868626 327109589 522055660
            -1334859137 -1570789254 133026533 -268444721</internalNodes>
          <leafValues>
            -3.6756658554077148e-001 4.8436427116394043e-001</leafValues></_>
        <_>
          <internalNodes>
            0 -1 133 1825109578 -1424396291 -1521676411 978568661
            -1728006138 867934367 1507298222 2068533754</internalNodes>
          <leafValues>
            -5.1296144723892212e-001 3.6187794804573059e-001</leafValues></_>
        <_>
          <internalNodes>
            0 -1 33 -859618870 -370162232 -712830736 -559950408 55039896
            -813610160 391485201 96792794</internalNodes>
          <leafValues>
            -6.4423495531082153e-001 2.4839462339878082e-001</leafValues></_>
        <_>
          <internalNodes>
            0 -1 151 -491003397 -739087904 -1940816959 -988195756
            -155461454 -759971654 -2129471489 -543175265</internalNodes>
          <leafValues>
            -3.2769128680229187e-001 5.6206446886062622e-001</leafValues></_>
        <_>
          <internalNodes>
            0 -1 24 -1344284001 -496186417 -1944922644 -1470443262
            -1352402406 1458816089 -1745905936 148863572</internalNodes>
          <leafValues>
            -5.7220178842544556e-001 3.1629478931427002e-001</leafValues></_>
        <_>
          <internalNodes>
            0 -1 0 803268774 -888065877 771889289 1919094972 1854007389
            2118904411 -880237892 1366753528</internalNodes>
          <leafValues>
            -5.7708501815795898e-001 3.0906850099563599e-001</leafValues></_>
        <_>
          <internalNodes>
            0 -1 71 -827636715 1875602469 474705520 1239356691
            -597402384 1927243103 -295939109 -365532223</internalNodes>
          <leafValues>
            -4.8488092422485352e-001 3.7211894989013672e-001</leafValues></_>
        <_>
          <internalNodes>
            0 -1 103 -7485028 -381319925 1307897455 -604131461
            2063583194 1052624719 576047827 -1292054937</internalNodes>
          <leafValues>
            -4.0960827469825745e-001 4.5965054631233215e-001</leafValues></_>
        <_>
          <internalNodes>
            0 -1 177 -70269313 2012160199 -645932817 1381725183 -1125323
            -1080208272 -990980385 -80749845</internalNodes>
          <leafValues>
            -3.1223928928375244e-001 6.0356515645980835e-001</leafValues></_>
        <_>
          <internalNodes>
            0 -1 157 -1431351325 1625851697 502333296 -1484783765
            1059805180 -1288171919 801066853 -288686257</internalNodes>
          <leafValues>
            -4.1316035389900208e-001 4.6221131086349487e-001</leafValues></_>
        <_>
          <internalNodes>
            0 -1 76 648750728 840267393 352426140 1440247830 -213399424
            1295188480 -1957205383 1464465798</internalNodes>
          <leafValues>
            -5.5896544456481934e-001 3.4154194593429565e-001</leafValues></_>
        <_>
          <internalNodes>
            0 -1 148 -1078468096 -1079345157 -599684843 -1369706027
            447708791 -2081250510 385943761 1393013048</internalNodes>
          <leafValues>
            -6.2565749883651733e-001 2.7523344755172729e-001</leafValues></_>
        <_>
          <internalNodes>
            0 -1 112 -840956331 -775150744 1082450389 1223557880
            -888229122 -801994619 -189156942 -749425789</internalNodes>
          <leafValues>
            -4.2681384086608887e-001 4.4962793588638306e-001</leafValues></_></weakClassifiers></_>
    <!-- stage 8 -->
    <_>
      <maxWeakCount>20</maxWeakCount>
      <stageThreshold>-5.6882828474044800e-001</stageThreshold>
      <weakClassifiers>
        <_>
          <internalNodes>
            0 -1 83 1494241780 2146949374 1069375485 1072634879 -4553474
            -4654854 1069531135 179964018</internalNodes>
          <leafValues>
            -5.0800240039825439e-001 6.6241598129272461e-001</leafValues></_>
        <_>
          <internalNodes>
            0 -1 39 -9179657 -227479689 -268321 -273182981 -808325393
            -470685989 -411361281 -268857345</internalNodes>
          <leafValues>
            -3.4044697880744934e-001 7.1212470531463623e-001</leafValues></_>
        <_>
          <internalNodes>
            0 -1 140 -1413742661 -1079716680 1576394205 498976980
            -1082395239 -1467307842 227920221 -1919054595</internalNodes>
          <leafValues>
            -3.7939211726188660e-001 5.5079072713851929e-001</leafValues></_>
        <_>
          <internalNodes>
            0 -1 18 -279617 -1611939878 1431401234 -67784737 -89878913
            1073024558 477398975 -1108001281</internalNodes>
          <leafValues>
            -3.5221672058105469e-001 5.3586763143539429e-001</leafValues></_>
        <_>
          <internalNodes>
            0 -1 9 -2105546825 -16812493 -721037897 -20022598
            -1552547921 -498090055 -174329436 -985735016</internalNodes>
          <leafValues>
            -4.4604182243347168e-001 4.5126470923423767e-001</leafValues></_>
        <_>
          <internalNodes>
            0 -1 55 1608145082 -167846806 511327802 1446215705
            -679572382 -704689569 -366045349 -72876038</internalNodes>
          <leafValues>
            -4.1552430391311646e-001 4.5601615309715271e-001</leafValues></_>
        <_>
          <internalNodes>
            0 -1 189 -269485577 580711670 -548080844 -1930494726
            -1543532507 951511883 -152105376 -1061175571</internalNodes>
          <leafValues>
            -4.5633494853973389e-001 4.1991725564002991e-001</leafValues></_>
        <_>
          <internalNodes>
            0 -1 111 -78250163 -816067647 1397915647 1516202907
            -276930590 1973727864 1685142087 -1099253558</internalNodes>
          <leafValues>
            -3.9274677634239197e-001 4.6647182106971741e-001</leafValues></_>
        <_>
          <internalNodes>
            0 -1 3 -1379972289 1550549748 -443296953 210936560 63029535
            1995044466 -787491552 -893463316</internalNodes>
          <leafValues>
            -4.6886220574378967e-001 3.8021910190582275e-001</leafValues></_>
        <_>
          <internalNodes>
            0 -1 87 -48169843 -582285881 -1074637383 914174843
            -2004190391 -358934120 -1662651318 733683451</internalNodes>
          <leafValues>
            -4.6481302380561829e-001 4.1232445836067200e-001</leafValues></_>
        <_>
          <internalNodes>
            0 -1 25 935685928 -1538300926 -466552494 1861219109
            -34901015 185860281 1103312128 2011422923</internalNodes>
          <leafValues>
            -5.5681300163269043e-001 3.2967397570610046e-001</leafValues></_>
        <_>
          <internalNodes>
            0 -1 120 644840785 -1105225807 -716714801 229611167
            -1706040893 -260380616 -342961197 -1090739052</internalNodes>
          <leafValues>
            -4.6954897046089172e-001 3.9762610197067261e-001</leafValues></_>
        <_>
          <internalNodes>
            0 -1 149 655737309 2049413763 805685085 1850952677 728821875
            1577457668 782173750 2134102654</internalNodes>
          <leafValues>
            -4.4841486215591431e-001 4.3944969773292542e-001</leafValues></_>
        <_>
          <internalNodes>
            0 -1 31 -42765131 -562143245 -8945739 -1703635014 -193134854
            -1889489041 -1846321972 -381883732</internalNodes>
          <leafValues>
            -4.2117768526077271e-001 4.6754959225654602e-001</leafValues></_>
        <_>
          <internalNodes>
            0 -1 61 1439921278 -1232204786 637697468 1362351099
            -545044342 1309017137 2076343032 2136985582</internalNodes>
          <leafValues>
            -5.0512540340423584e-001 3.8363867998123169e-001</leafValues></_>
        <_>
          <internalNodes>
            0 -1 116 -296186795 -684874279 1680390734 1059576297
            -13380775 332922777 -1154909713 727351308</internalNodes>
          <leafValues>
            -5.0894498825073242e-001 3.6020180583000183e-001</leafValues></_>
        <_>
          <internalNodes>
            0 -1 174 -13949958 1542232584 1494319505 357851312
            -341386703 1108001298 1125617885 -907620162</internalNodes>
          <leafValues>
            -4.7369086742401123e-001 4.1329377889633179e-001</leafValues></_>
        <_>
          <internalNodes>
            0 -1 179 -183764550 1586249746 1102823617 1578033152
            -618508134 655009344 1226865836 190487006</internalNodes>
          <leafValues>
            -5.6207346916198730e-001 3.3109739422798157e-001</leafValues></_>
        <_>
          <internalNodes>
            0 -1 180 -1709965718 1513946336 23530897 1433847265
            -1902949326 -290059620 1077104447 1191952757</internalNodes>
          <leafValues>
            -5.4273945093154907e-001 3.4597826004028320e-001</leafValues></_>
        <_>
          <internalNodes>
            0 -1 7 836331344 -1107914537 -1600105805 -734964609
            -1614714049 68552076 -175493325 118912012</internalNodes>
          <leafValues>
            -6.5545845031738281e-001 2.9066741466522217e-001</leafValues></_></weakClassifiers></_>
    <!-- stage 9 -->
    <_>
      <maxWeakCount>19</maxWeakCount>
      <stageThreshold>-5.0170713663101196e-001</stageThreshold>
      <weakClassifiers>
        <_>
          <internalNodes>
            0 -1 119 -21090517 -1087127795 -118977 -8655041 -51380225
            -23281681 -1728135169 -2000045121</internalNodes>
          <leafValues>
            -3.2103005051612854e-001 7.4877381324768066e-001</leafValues></_>
        <_>
          <internalNodes>
            0 -1 44 -1364525065 -444271259 -32833 -201884169 -1090596929
            -136841226 -1208554506 -527435</internalNodes>
          <leafValues>
            -3.3015668392181396e-001 7.1277272701263428e-001</leafValues></_>
        <_>
          <internalNodes>
            0 -1 63 -20754 1232437318 -1386905189 876985851 -270538626
            219613956 -269232117 1970405024</internalNodes>
          <leafValues>
            -5.7387143373489380e-001 4.1733798384666443e-001</leafValues></_>
        <_>
          <internalNodes>
            0 -1 107 -285425699 -2137939747 -1197576193 -1359346817
            1983118011 -1288225865 -557122579 -291713596</internalNodes>
          <leafValues>
            -4.8259100317955017e-001 4.2863488197326660e-001</leafValues></_>
        <_>
          <internalNodes>
            0 -1 168 -470824995 1295893675 -978623033 1219346399
            -508068216 -1065725312 -270091600 -740819205</internalNodes>
          <leafValues>
            -4.4718843698501587e-001 4.6863427758216858e-001</leafValues></_>
        <_>
          <internalNodes>
            0 -1 147 2063321205 -758916706 279987719 270504647
            -366362028 -620559813 -527410995 1377757839</internalNodes>
          <leafValues>
            -5.4816150665283203e-001 3.5091114044189453e-001</leafValues></_>
        <_>
          <internalNodes>
            0 -1 43 -135283717 -1211649302 -22166605 -55506239
            -1698334040 -2075134456 1162043743 500693407</internalNodes>
          <leafValues>
            -4.2982742190361023e-001 4.5516714453697205e-001</leafValues></_>
        <_>
          <internalNodes>
            0 -1 154 -1106122983 -105847884 -1449854081 2130238884
            -268725441 2012875996 -884569590 2109669853</internalNodes>
          <leafValues>
            -4.6502560377120972e-001 4.2239382863044739e-001</leafValues></_>
        <_>
          <internalNodes>
            0 -1 161 2104843871 2021609534 1832673023 1834964319
            -100488366 -249775442 726333439 -1684383235</internalNodes>
          <leafValues>
            -3.7998539209365845e-001 5.0206625461578369e-001</leafValues></_>
        <_>
          <internalNodes>
            0 -1 6 -187806941 -100671506 410838392 1375221247 -818949232
            -667350004 -76022401 -546668770</internalNodes>
          <leafValues>
            -3.9988031983375549e-001 4.7577780485153198e-001</leafValues></_>
        <_>
          <internalNodes>
            0 -1 165 2134899625 -752399954 -704261151 -939796841
            -637310056 891331328 1213190596 1436533953</internalNodes>
          <leafValues>
            -4.3519684672355652e-001 4.3731489777565002e-001</leafValues></_>
        <_>
          <internalNodes>
            0 -1 17 1271775547 484233374 -576498598 751069690 1531699018
            -867986381 1728295639 -19598004</internalNodes>
          <leafValues>
            -4.3038216233253479e-001 4.2991733551025391e-001</leafValues></_>
        <_>
          <internalNodes>
            0 -1 35 -1350869773 653213294 928469793 -1127750203
            -679620721 -1941469972 -949758093 -583027654</internalNodes>
          <leafValues>
            -3.9825838804244995e-001 4.9133810400962830e-001</leafValues></_>
        <_>
          <internalNodes>
            0 -1 21 1686099221 -143393474 803171759 -1348854371
            1157626010 -1528856673 1505453565 -1532391876</internalNodes>
          <leafValues>
            -3.6839181184768677e-001 5.2405416965484619e-001</leafValues></_>
        <_>
          <internalNodes>
            0 -1 104 -6310562 -1148458535 663248606 550477065 1583338100
            865616299 652201590 1111715559</internalNodes>
          <leafValues>
            -6.2380123138427734e-001 3.1007394194602966e-001</leafValues></_>
        <_>
          <internalNodes>
            0 -1 144 -74203341 -330654752 2033030544 -695801388
            -1339965321 698153424 1542410485 -117577699</internalNodes>
          <leafValues>
            -4.3448099493980408e-001 4.3511858582496643e-001</leafValues></_>
        <_>
          <internalNodes>
            0 -1 77 1955076543 -193701708 1978640479 -1941071794
            -56718777 -1267410767 813867717 1442579706</internalNodes>
          <leafValues>
            -5.1366686820983887e-001 3.8245040178298950e-001</leafValues></_>
        <_>
          <internalNodes>
            0 -1 183 -603981121 1573310528 -924682893 1347096940
            -555239182 -340905700 1116681725 -882904465</internalNodes>
          <leafValues>
            -3.9650964736938477e-001 5.2999597787857056e-001</leafValues></_>
        <_>
          <internalNodes>
            0 -1 124 -1711534497 -803851673 -247185385 -1199606064
            -1674250492 541104201 172072924 1061597795</internalNodes>
          <leafValues>
            -5.4079771041870117e-001 3.9739701151847839e-001</leafValues></_></weakClassifiers></_></stages>
  <features>
    <_>
      <rect>
        0 8 10 5</rect></_>
    <_>
      <rect>
        0 13 3 2</rect></_>
    <_>
      <rect>
        1 10 8 9</rect></_>
    <_>
      <rect>
        1 14 2 4</rect></_>
    <_>
      <rect>
        1 37 2 2</rect></_>
    <_>
      <rect>
        2 10 3 2</rect></_>
    <_>
      <rect>
        2 11 7 7</rect></_>
    <_>
      <rect>
        2 12 7 9</rect></_>
    <_>
      <rect>
        2 34 3 2</rect></_>
    <_>
      <rect>
        3 10 2 3</rect></_>
    <_>
      <rect>
        3 12 2 4</rect></_>
    <_>
      <rect>
        3 14 3 3</rect></_>
    <_>
      <rect>
        3 18 3 2</rect></_>
    <_>
      <rect>
        3 20 3 2</rect></_>
    <_>
      <rect>
        3 25 5 5</rect></_>
    <_>
      <rect>
        4 3 4 10</rect></_>
    <_>
      <rect>
        4 12 4 2</rect></_>
    <_>
      <rect>
        4 14 1 2</rect></_>
    <_>
      <rect>
        4 17 4 7</rect></_>
    <_>
      <rect>
        4 18 6 7</rect></_>
    <_>
      <rect>
        4 19 2 2</rect></_>
    <_>
      <rect>
        4 22 7 7</rect></_>
    <_>
      <rect>
        4 22 10 7</rect></_>
    <_>
      <rect>
        4 29 8 1</rect></_>
    <_>
      <rect>
        4 32 3 2</rect></_>
    <_>
      <rect>
        5 8 4 4</rect></_>
    <_>
      <rect>
        5 9 7 9</rect></_>
    <_>
      <rect>
        5 13 1 2</rect></_>
    <_>
      <rect>
        5 15 5 3</rect></_>
    <_>
      <rect>
        5 21 5 6</rect></_>
    <_>
      <rect>
        5 34 2 2</rect></_>
    <_>
      <rect>
        5 37 2 3</rect></_>
    <_>
      <rect>
        6 14 2 4</rect></_>
    <_>
      <rect>
        6 15 2 3</rect></_>
    <_>
      <rect>
        6 21 5 4</rect></_>
    <_>
      <rect>
        7 10 3 4</rect></_>
    <_>
      <rect>
        7 12 2 4</rect></_>
    <_>
      <rect>
        8 4 11 12</rect></_>
    <_>
      <rect>
        8 12 8 9</rect></_>
    <_>
      <rect>
        8 15 10 6</rect></_>
    <_>
      <rect>
        8 18 1 2</rect></_>
    <_>
      <rect>
        8 36 2 2</rect></_>
    <_>
      <rect>
        9 8 5 11</rect></_>
    <_>
      <rect>
        9 14 2 3</rect></_>
    <_>
      <rect>
        9 22 9 7</rect></_>
    <_>
      <rect>
        9 28 13 7</rect></_>
    <_>
      <rect>
        9 31 2 2</rect></_>
    <_>
      <rect>
        10 11 2 4</rect></_>
    <_>
      <rect>
        10 12 4 8</rect></_>
    <_>
      <rect>
        10 18 2 3</rect></_>
    <_>
      <rect>
        10 22 2 3</rect></_>
    <_>
      <rect>
        11 13 2 4</rect></_>
    <_>
      <rect>
        11 14 2 3</rect></_>
    <_>
      <rect>
        11 16 2 3</rect></_>
    <_>
      <rect>
        11 18 2 3</rect></_>
    <_>
      <rect>
        11 24 3 3</rect></_>
    <_>
      <rect>
        11 25 2 2</rect></_>
    <_>
      <rect>
        11 29 2 2</rect></_>
    <_>
      <rect>
        12 7 6 5</rect></_>
    <_>
      <rect>
        12 12 12 8</rect></_>
    <_>
      <rect>
        12 13 2 2</rect></_>
    <_>
      <rect>
        12 22 2 3</rect></_>
    <_>
      <rect>
        12 28 3 3</rect></_>
    <_>
      <rect>
        13 10 4 8</rect></_>
    <_>
      <rect>
        13 14 4 4</rect></_>
    <_>
      <rect>
        13 28 6 3</rect></_>
    <_>
      <rect>
        13 29 2 1</rect></_>
    <_>
      <rect>
        13 29 8 5</rect></_>
    <_>
      <rect>
        14 14 1 1</rect></_>
    <_>
      <rect>
        14 17 1 2</rect></_>
    <_>
      <rect>
        14 29 1 1</rect></_>
    <_>
      <rect>
        14 30 2 2</rect></_>
    <_>
      <rect>
        15 18 2 3</rect></_>
    <_>
      <rect>
        15 29 5 2</rect></_>
    <_>
      <rect>
        15 30 3 2</rect></_>
    <_>
      <rect>
        15 34 7 5</rect></_>
    <_>
      <rect>
        16 12 2 3</rect></_>
    <_>
      <rect>
        16 17 4 4</rect></_>
    <_>
      <rect>
        16 17 8 4</rect></_>
    <_>
      <rect>
        16 20 7 4</rect></_>
    <_>
      <rect>
        16 21 4 4</rect></_>
    <_>
      <rect>
        16 28 5 2</rect></_>
    <_>
      <rect>
        16 29 2 1</rect></_>
    <_>
      <rect>
        16 30 5 2</rect></_>
    <_>
      <rect>
        17 8 6 3</rect></_>
    <_>
      <rect>
        17 17 1 1</rect></_>
    <_>
      <rect>
        17 18 8 4</rect></_>
    <_>
      <rect>
        17 31 4 3</rect></_>
    <_>
      <rect>
        18 21 5 3</rect></_>
    <_>
      <rect>
        18 30 4 2</rect></_>
    <_>
      <rect>
        19 27 2 1</rect></_>
    <_>
      <rect>
        19 31 2 3</rect></_>
    <_>
      <rect>
        20 22 3 2</rect></_>
    <_>
      <rect>
        20 25 2 1</rect></_>
    <_>
      <rect>
        21 5 5 2</rect></_>
    <_>
      <rect>
        21 9 3 2</rect></_>
    <_>
      <rect>
        21 10 6 3</rect></_>
    <_>
      <rect>
        21 28 9 2</rect></_>
    <_>
      <rect>
        21 30 3 4</rect></_>
    <_>
      <rect>
        21 30 9 2</rect></_>
    <_>
      <rect>
        21 31 6 4</rect></_>
    <_>
      <rect>
        22 10 6 5</rect></_>
    <_>
      <rect>
        22 17 6 3</rect></_>
    <_>
      <rect>
        22 22 3 2</rect></_>
    <_>
      <rect>
        22 24 3 2</rect></_>
    <_>
      <rect>
        22 29 2 2</rect></_>
    <_>
      <rect>
        22 33 2 1</rect></_>
    <_>
      <rect>
        23 6 3 2</rect></_>
    <_>
      <rect>
        23 7 4 2</rect></_>
    <_>
      <rect>
        23 7 8 9</rect></_>
    <_>
      <rect>
        23 9 8 5</rect></_>
    <_>
      <rect>
        23 16 5 4</rect></_>
    <_>
      <rect>
        23 21 1 1</rect></_>
    <_>
      <rect>
        23 21 4 2</rect></_>
    <_>
      <rect>
        23 21 5 3</rect></_>
    <_>
      <rect>
        23 23 2 2</rect></_>
    <_>
      <rect>
        23 24 1 1</rect></_>
    <_>
      <rect>
        23 24 3 2</rect></_>
    <_>
      <rect>
        23 27 5 3</rect></_>
    <_>
      <rect>
        24 9 8 3</rect></_>
    <_>
      <rect>
        24 11 2 2</rect></_>
    <_>
      <rect>
        24 18 4 3</rect></_>
    <_>
      <rect>
        24 19 3 3</rect></_>
    <_>
      <rect>
        24 21 2 3</rect></_>
    <_>
      <rect>
        24 22 1 2</rect></_>
    <_>
      <rect>
        24 28 2 1</rect></_>
    <_>
      <rect>
        24 31 4 2</rect></_>
    <_>
      <rect>
        25 9 2 2</rect></_>
    <_>
      <rect>
        25 15 4 3</rect></_>
    <_>
      <rect>
        25 19 3 2</rect></_>
    <_>
      <rect>
        25 19 4 3</rect></_>
    <_>
      <rect>
        25 20 4 3</rect></_>
    <_>
      <rect>
        25 26 4 2</rect></_>
    <_>
      <rect>
        25 26 4 3</rect></_>
    <_>
      <rect>
        26 4 5 4</rect></_>
    <_>
      <rect>
        26 12 7 7</rect></_>
    <_>
      <rect>
        26 32 1 1</rect></_>
    <_>
      <rect>
        27 15 3 2</rect></_>
    <_>
      <rect>
        27 24 1 1</rect></_>
    <_>
      <rect>
        27 26 2 2</rect></_>
    <_>
      <rect>
        27 28 2 1</rect></_>
    <_>
      <rect>
        28 5 7 11</rect></_>
    <_>
      <rect>
        28 6 7 10</rect></_>
    <_>
      <rect>
        28 8 7 3</rect></_>
    <_>
      <rect>
        28 21 3 2</rect></_>
    <_>
      <rect>
        28 21 3 3</rect></_>
    <_>
      <rect>
        28 24 1 1</rect></_>
    <_>
      <rect>
        28 25 1 1</rect></_>
    <_>
      <rect>
        28 25 4 3</rect></_>
    <_>
      <rect>
        29 9 4 8</rect></_>
    <_>
      <rect>
        29 20 1 1</rect></_>
    <_>
      <rect>
        29 21 1 1</rect></_>
    <_>
      <rect>
        29 23 4 3</rect></_>
    <_>
      <rect>
        29 24 2 2</rect></_>
    <_>
      <rect>
        29 28 1 1</rect></_>
    <_>
      <rect>
        30 25 5 3</rect></_>
    <_>
      <rect>
        32 23 3 3</rect></_>
    <_>
      <rect>
        32 23 5 5</rect></_>
    <_>
      <rect>
        32 26 1 1</rect></_>
    <_>
      <rect>
        33 5 4 4</rect></_>
    <_>
      <rect>
        34 3 5 13</rect></_>
    <_>
      <rect>
        34 12 2 2</rect></_>
    <_>
      <rect>
        34 14 2 4</rect></_>
    <_>
      <rect>
        34 15 5 7</rect></_>
    <_>
      <rect>
        34 17 3 5</rect></_>
    <_>
      <rect>
        34 25 1 1</rect></_>
    <_>
      <rect>
        35 11 5 2</rect></_>
    <_>
      <rect>
        35 14 5 3</rect></_>
    <_>
      <rect>
        35 16 5 5</rect></_>
    <_>
      <rect>
        36 6 4 6</rect></_>
    <_>
      <rect>
        36 13 3 2</rect></_>
    <_>
      <rect>
        36 14 3 5</rect></_>
    <_>
      <rect>
        36 27 3 2</rect></_>
    <_>
      <rect>
        37 19 1 1</rect></_>
    <_>
      <rect>
        37 25 1 1</rect></_>
    <_>
      <rect>
        37 27 1 1</rect></_>
    <_>
      <rect>
        38 8 4 9</rect></_>
    <_>
      <rect>
        38 19 1 1</rect></_>
    <_>
      <rect>
        38 21 2 2</rect></_>
    <_>
      <rect>
        38 24 2 2</rect></_>
    <_>
      <rect>
        38 26 2 2</rect></_>
    <_>
      <rect>
        38 29 1 1</rect></_>
    <_>
      <rect>
        39 22 3 6</rect></_>
    <_>
      <rect>
        39 23 1 1</rect></_>
    <_>
      <rect>
        39 24 1 2</rect></_>
    <_>
      <rect>
        39 27 1 1</rect></_>
    <_>
      <rect>
        40 38 2 2</rect></_>
    <_>
      <rect>
        40 40 1 1</rect></_>
    <_>
      <rect>
        41 16 2 3</rect></_>
    <_>
      <rect>
        44 33 2 3</rect></_></features></cascade>
</opencv_storage>
