<?xml version="1.0"?>
<opencv_storage>
<stage7>
  <maxWeakCount>12</maxWeakCount>
  <stageThreshold>-2.7149906754493713e-001</stageThreshold>
  <weakClassifiers>
    <_>
      <internalNodes>
        0 -1 73683 -1054469 -67109889 83823650 -838923098 926154683
        695717567 -604250113 -545923653</internalNodes>
      <leafValues>
        -3.9038032293319702e-001 8.1047195196151733e-001</leafValues></_>
    <_>
      <internalNodes>
        0 -1 144241 -31498465 1595083551 -1868209794 -231276674
        -249603297 1565080395 -108077538 -665071169</internalNodes>
      <leafValues>
        -5.9224468469619751e-001 5.8842039108276367e-001</leafValues></_>
    <_>
      <internalNodes>
        0 -1 101922 -1414878529 -542307105 -1097991145 1885181052
        -1495552325 -3963785 -1110461445 -571104625</internalNodes>
      <leafValues>
        -5.8680737018585205e-001 5.7622492313385010e-001</leafValues></_>
    <_>
      <internalNodes>
        0 -1 117435 -226431266 -648954665 -542266659 771039238 13892123
        -625946529 -188219650 -67131730</internalNodes>
      <leafValues>
        -6.2630444765090942e-001 4.9901348352432251e-001</leafValues></_>
    <_>
      <internalNodes>
        0 -1 121845 -1090478631 925406360 1158799197 534090965
        -1203121665 -1414831952 101805308 177010368</internalNodes>
      <leafValues>
        -6.9705021381378174e-001 4.5092958211898804e-001</leafValues></_>
    <_>
      <internalNodes>
        0 -1 30099 1073721207 2146413807 -680345603 -9048072 904169471
        -41677201 -1082787841 -324759809</internalNodes>
      <leafValues>
        -5.2897346019744873e-001 6.0749030113220215e-001</leafValues></_>
    <_>
      <internalNodes>
        0 -1 127992 -56982755 -247674834 -2038234853 -1643675041
        -11955299 -81730838 -234204673 -131531057</internalNodes>
      <leafValues>
        -5.8530849218368530e-001 5.7744181156158447e-001</leafValues></_>
    <_>
      <internalNodes>
        0 -1 46610 2039463898 -418385624 1095132979 -844244728 889943722
        1236148618 1087846071 1498400920</internalNodes>
      <leafValues>
        -7.2331857681274414e-001 4.8059117794036865e-001</leafValues></_>
    <_>
      <internalNodes>
        0 -1 84763 -169983265 -145537701 269021278 1983964043 -94484412
        -80539533 2082003166 776715007</internalNodes>
      <leafValues>
        -7.0951521396636963e-001 4.7464025020599365e-001</leafValues></_>
    <_>
      <internalNodes>
        0 -1 106806 280025337 -720088336 756119837 1018726294
        -1298482198 -7433747 -58016818 -1347532760</internalNodes>
      <leafValues>
        -5.9127372503280640e-001 5.5582678318023682e-001</leafValues></_>
    <_>
      <internalNodes>
        0 -1 155177 -9766 -606237475 -598736909 420021457 -405808694
        -68288565 973269706 -1188431153</internalNodes>
      <leafValues>
        -5.7618993520736694e-001 6.5665811300277710e-001</leafValues></_>
    <_>
      <internalNodes>
        0 -1 153846 -212601862 -584523606 17352434 -539520959
        -1574180622 1101758626 284016895 -909129509</internalNodes>
      <leafValues>
        -6.0288977622985840e-001 5.6828141212463379e-001</leafValues></_></weakClassifiers></stage7>
</opencv_storage>
