<?xml version="1.0"?>
<opencv_storage>
<stage3>
  <maxWeakCount>10</maxWeakCount>
  <stageThreshold>-2.7618795633316040e-001</stageThreshold>
  <weakClassifiers>
    <_>
      <internalNodes>
        0 -1 57129 -268440833 -268448577 -1342476289 590466035
        -805336337 -839938820 -806402177 -340537345</internalNodes>
      <leafValues>
        -5.1105934381484985e-001 8.5478073358535767e-001</leafValues></_>
    <_>
      <internalNodes>
        0 -1 101827 -1090475377 -78081289 -1876949761 -48192459
        -305223425 -32601445 -1692300965 -21585346</internalNodes>
      <leafValues>
        -6.0763877630233765e-001 6.8012601137161255e-001</leafValues></_>
    <_>
      <internalNodes>
        0 -1 154945 -211848269 -673220585 1602171767 1415100799
        -12897477 -1082198221 2139075583 -95748098</internalNodes>
      <leafValues>
        -5.8173155784606934e-001 6.4148646593093872e-001</leafValues></_>
    <_>
      <internalNodes>
        0 -1 126282 -121636557 -248251085 -9 -574620877 -67174469
        -4210899 -822084609 -520112461</internalNodes>
      <leafValues>
        -5.4709100723266602e-001 6.8296563625335693e-001</leafValues></_>
    <_>
      <internalNodes>
        0 -1 23088 -134218294 -752229366 -682159358 -143139810
        -238036485 67674573 1996960142 1464857302</internalNodes>
      <leafValues>
        -7.8840351104736328e-001 5.1070618629455566e-001</leafValues></_>
    <_>
      <internalNodes>
        0 -1 30109 -37896923 -1309199425 1229519347 -539651112
        -1409042003 -123436868 1331805359 -1460552453</internalNodes>
      <leafValues>
        -6.4935910701751709e-001 5.5085533857345581e-001</leafValues></_>
    <_>
      <internalNodes>
        0 -1 98311 1561910522 -581771806 285366655 326197433 1060768457
        -1703411176 826317807 1532170889</internalNodes>
      <leafValues>
        -7.8372383117675781e-001 4.5989686250686646e-001</leafValues></_>
    <_>
      <internalNodes>
        0 -1 110785 -581173768 -10492080 1896405433 -539114435
        -1291553510 -1145337187 -2147429238 -1129475909</internalNodes>
      <leafValues>
        -6.0739147663116455e-001 6.0540163516998291e-001</leafValues></_>
    <_>
      <internalNodes>
        0 -1 134292 -120334754 -557072246 635219 1497092552 -130099110
        -904199542 -1063223074 -1146440965</internalNodes>
      <leafValues>
        -6.0983836650848389e-001 6.3374638557434082e-001</leafValues></_>
    <_>
      <internalNodes>
        0 -1 158246 1981763609 -582749166 1363231773 420098076
        -211082437 2032092166 856297391 1502259962</internalNodes>
      <leafValues>
        -8.1911575794219971e-001 4.8331862688064575e-001</leafValues></_></weakClassifiers></stage3>
</opencv_storage>
