<?xml version="1.0"?>
<opencv_storage>
<stage4>
  <maxWeakCount>11</maxWeakCount>
  <stageThreshold>-4.9859625101089478e-001</stageThreshold>
  <weakClassifiers>
    <_>
      <internalNodes>
        0 -1 29703 -35201 -19201 791654655 -234884865 -50401026
        -1527508812 772647087 -187722049</internalNodes>
      <leafValues>
        -4.6500593423843384e-001 8.1165599822998047e-001</leafValues></_>
    <_>
      <internalNodes>
        0 -1 144085 -95193293 2067739967 2069652319 475996447 -874570949
        2067477263 -609822146 -1732591937</internalNodes>
      <leafValues>
        -6.3184529542922974e-001 6.1748009920120239e-001</leafValues></_>
    <_>
      <internalNodes>
        0 -1 113803 1347223551 -708248672 530127711 1303070207
        -898048002 -4674822 467343871 -1681716317</internalNodes>
      <leafValues>
        -5.9962397813796997e-001 6.2191331386566162e-001</leafValues></_>
    <_>
      <internalNodes>
        0 -1 59412 -218471681 1073692607 -198934595 1846738933
        -445160713 -4228361 -598410241 -9507073</internalNodes>
      <leafValues>
        -5.6398361921310425e-001 6.5136468410491943e-001</leafValues></_>
    <_>
      <internalNodes>
        0 -1 121876 -208151651 402757842 -1618879203 499092349
        -241063528 -1180975557 261818552 503167707</internalNodes>
      <leafValues>
        -6.8352049589157104e-001 5.2114814519882202e-001</leafValues></_>
    <_>
      <internalNodes>
        0 -1 68988 1944058602 -187438966 1119162434 2012180685
        1384302794 8567308 1469564911 -680539473</internalNodes>
      <leafValues>
        -6.8852466344833374e-001 4.9644216895103455e-001</leafValues></_>
    <_>
      <internalNodes>
        0 -1 48431 1481779831 -144765697 -266281601 -275192931
        -1414306845 -73843713 -182240745 -293651781</internalNodes>
      <leafValues>
        -5.7353895902633667e-001 6.2112843990325928e-001</leafValues></_>
    <_>
      <internalNodes>
        0 -1 136959 -625213733 -47189856 -671878442 -615006027
        -626337574 -128202499 50589947 -740569633</internalNodes>
      <leafValues>
        -4.8732748627662659e-001 7.5409466028213501e-001</leafValues></_>
    <_>
      <internalNodes>
        0 -1 10087 -201 1626337135 -520096218 -285278209 -570458145
        231210879 -789089552 -1226899721</internalNodes>
      <leafValues>
        -5.8351236581802368e-001 6.2403035163879395e-001</leafValues></_>
    <_>
      <internalNodes>
        0 -1 52028 -103057869 -1849384809 -452390617 -1121902558
        -1601173350 -1063542566 -275796245 -1103118798</internalNodes>
      <leafValues>
        -6.4606589078903198e-001 5.7900243997573853e-001</leafValues></_>
    <_>
      <internalNodes>
        0 -1 117365 2111406321 -1657016286 1094307263 1431901746
        -2096962565 -2389495 -1710649441 -1658109921</internalNodes>
      <leafValues>
        -6.4646494388580322e-001 5.8706927299499512e-001</leafValues></_></weakClassifiers></stage4>
</opencv_storage>
