<?xml version="1.0"?>
<opencv_storage>
<stage5>
  <maxWeakCount>11</maxWeakCount>
  <stageThreshold>-5.5553650856018066e-001</stageThreshold>
  <weakClassifiers>
    <_>
      <internalNodes>
        0 -1 137182 -15476463 -8932453 -179839723 -547890337 -2097217
        -1164068559 -235012609 -639631361</internalNodes>
      <leafValues>
        -4.0985441207885742e-001 8.2240235805511475e-001</leafValues></_>
    <_>
      <internalNodes>
        0 -1 59509 -161299729 -604561265 -1265614981 -671693841
        -1822260625 -25214449 1916949245 -77634481</internalNodes>
      <leafValues>
        -5.6453830003738403e-001 6.3780379295349121e-001</leafValues></_>
    <_>
      <internalNodes>
        0 -1 67798 -251921665 1209776858 -715132457 1431691855
        -536106326 -132292462 -268176749 -784076277</internalNodes>
      <leafValues>
        -5.1270920038223267e-001 6.6305053234100342e-001</leafValues></_>
    <_>
      <internalNodes>
        0 -1 110781 -77815812 -8178251 -141444609 -1094893605 -74731685
        -4616547 455018015 1073155071</internalNodes>
      <leafValues>
        -6.9162720441818237e-001 4.9023029208183289e-001</leafValues></_>
    <_>
      <internalNodes>
        0 -1 89405 -9285377 -579379147 -1677708705 122684511 -1549120904
        -613933035 -1168580609 -1156382909</internalNodes>
      <leafValues>
        -5.7539403438568115e-001 5.9620809555053711e-001</leafValues></_>
    <_>
      <internalNodes>
        0 -1 12507 -287343105 -1565601321 -997536260 -1469916210
        -1277707273 2142274700 -91234321 -1561133121</internalNodes>
      <leafValues>
        -6.1423885822296143e-001 5.5019479990005493e-001</leafValues></_>
    <_>
      <internalNodes>
        0 -1 144973 -2366549 -551623944 2079413497 -46008859 -671104376
        -941482609 -212012837 -708315669</internalNodes>
      <leafValues>
        -5.1437991857528687e-001 6.6625154018402100e-001</leafValues></_>
    <_>
      <internalNodes>
        0 -1 123728 810799611 -1950670409 1200871775 -1624473089
        -1163795465 -79832351 -1341325316 -1080509260</internalNodes>
      <leafValues>
        -6.2640148401260376e-001 5.8143591880798340e-001</leafValues></_>
    <_>
      <internalNodes>
        0 -1 30248 -619200747 856796639 1380090141 -1108877033 691053237
        -662431551 1824808669 1751399336</internalNodes>
      <leafValues>
        -6.7615318298339844e-001 5.2959746122360229e-001</leafValues></_>
    <_>
      <internalNodes>
        0 -1 139815 -356778757 -223286080 158859095 -730473068
        -501487365 1184876713 320063999 -887107081</internalNodes>
      <leafValues>
        -5.3484356403350830e-001 6.8175280094146729e-001</leafValues></_>
    <_>
      <internalNodes>
        0 -1 114440 487110612 -1078190596 420466045 -1610934823
        -1802444805 -1181075786 -1472731463 707697360</internalNodes>
      <leafValues>
        -7.6980918645858765e-001 4.9180546402931213e-001</leafValues></_></weakClassifiers></stage5>
</opencv_storage>
