<?xml version="1.0"?>
<opencv_storage>
<stage2>
  <maxWeakCount>10</maxWeakCount>
  <stageThreshold>-5.3907430171966553e-001</stageThreshold>
  <weakClassifiers>
    <_>
      <internalNodes>
        0 -1 139189 -12845125 -67388741 993213243 -796937485 -4210693
        -285239118 1060323123 -801113921</internalNodes>
      <leafValues>
        -5.5806654691696167e-001 8.2180941104888916e-001</leafValues></_>
    <_>
      <internalNodes>
        0 -1 26975 -721426337 -43028193 9551995 1358649915 -191012453
        -1196752886 1091687803 -585164769</internalNodes>
      <leafValues>
        -5.6272298097610474e-001 7.5392723083496094e-001</leafValues></_>
    <_>
      <internalNodes>
        0 -1 110329 -6291714 -576725108 33864382 393042845 -118820914
        -18642045 1086515967 1547501519</internalNodes>
      <leafValues>
        -7.4375665187835693e-001 5.4130095243453979e-001</leafValues></_>
    <_>
      <internalNodes>
        0 -1 29042 -1558 -1907904626 -148377006 -805882434 -2034503173
        1095037083 1986745843 1473772538</internalNodes>
      <leafValues>
        -8.0873674154281616e-001 4.6598881483078003e-001</leafValues></_>
    <_>
      <internalNodes>
        0 -1 155187 -539140641 -581912350 -639697697 1342371937
        -569752184 -1710569246 -1181885105 -1154744433</internalNodes>
      <leafValues>
        -5.9979474544525146e-001 6.3429129123687744e-001</leafValues></_>
    <_>
      <internalNodes>
        0 -1 106713 -4273712 -941849683 -1113531363 -1075477108
        -1191046657 -1086664626 136380827 1068448667</internalNodes>
      <leafValues>
        -7.1747905015945435e-001 5.1301169395446777e-001</leafValues></_>
    <_>
      <internalNodes>
        0 -1 404 282550767 -1856780310 -787999509 -135958151 -1559581809
        -544488822 -1182021170 -239023356</internalNodes>
      <leafValues>
        -6.7059725522994995e-001 5.5383455753326416e-001</leafValues></_>
    <_>
      <internalNodes>
        0 -1 64978 -416256941 -742932273 -352169483 764552019
        -1421794825 -24699311 -497866509 -347053565</internalNodes>
      <leafValues>
        -6.7014503479003906e-001 5.7292145490646362e-001</leafValues></_>
    <_>
      <internalNodes>
        0 -1 100613 -53858501 1059653050 -670639649 -361187308
        -1440273409 -3439993 -322713377 -858998897</internalNodes>
      <leafValues>
        -7.2790598869323730e-001 5.4017192125320435e-001</leafValues></_>
    <_>
      <internalNodes>
        0 -1 134516 -1480851559 -341772144 419612157 1301108944
        -1517727339 -1980849973 -1999774504 1303365885</internalNodes>
      <leafValues>
        -7.3458909988403320e-001 5.3907704353332520e-001</leafValues></_></weakClassifiers></stage2>
</opencv_storage>
