<?xml version="1.0"?>
<opencv_storage>
<stage6>
  <maxWeakCount>11</maxWeakCount>
  <stageThreshold>-6.9807946681976318e-001</stageThreshold>
  <weakClassifiers>
    <_>
      <internalNodes>
        0 -1 61867 -989868289 -167937 -536870913 2136342527 -855642370
        -67109122 -822089999 -145625857</internalNodes>
      <leafValues>
        -3.8503548502922058e-001 8.2615214586257935e-001</leafValues></_>
    <_>
      <internalNodes>
        0 -1 142082 -337649805 1216070731 1394754320 1291837199
        -539495445 -381327093 1932736018 1289223039</internalNodes>
      <leafValues>
        -6.2143933773040771e-001 5.8231580257415771e-001</leafValues></_>
    <_>
      <internalNodes>
        0 -1 35152 -5505046 -420480312 -1780546768 -806357959 -849870849
        1324073045 1156042931 -838932994</internalNodes>
      <leafValues>
        -6.1916136741638184e-001 5.5032646656036377e-001</leafValues></_>
    <_>
      <internalNodes>
        0 -1 57667 -538968150 -275802134 -79170030 1541382348 -3614274
        -1039398392 63173061 1398797566</internalNodes>
      <leafValues>
        -7.1982502937316895e-001 4.3830034136772156e-001</leafValues></_>
    <_>
      <internalNodes>
        0 -1 31235 -1879638081 -1395196433 -746397712 -1598382322
        -1214265505 -889943158 -947290406 -386736140</internalNodes>
      <leafValues>
        -5.9883320331573486e-001 5.2514714002609253e-001</leafValues></_>
    <_>
      <internalNodes>
        0 -1 106072 -2721556 2077470414 285793717 -712654512 -67394881
        -207255287 -238166369 -1693456065</internalNodes>
      <leafValues>
        -6.3704299926757813e-001 5.1194638013839722e-001</leafValues></_>
    <_>
      <internalNodes>
        0 -1 16966 -578816022 -957653086 -620290702 -776215810
        -765523081 1101966959 -739548713 -136842386</internalNodes>
      <leafValues>
        -6.3627183437347412e-001 5.1240193843841553e-001</leafValues></_>
    <_>
      <internalNodes>
        0 -1 116634 -348860417 -1753276461 -1355022849 -858210308
        -1967623 -1077031577 -370033409 -590813960</internalNodes>
      <leafValues>
        -5.4262208938598633e-001 6.4516717195510864e-001</leafValues></_>
    <_>
      <internalNodes>
        0 -1 120862 -547759121 -1143227544 1016437207 2069861083
        -539074870 -94516744 -2117731638 -203541973</internalNodes>
      <leafValues>
        -5.6946170330047607e-001 6.2136620283126831e-001</leafValues></_>
    <_>
      <internalNodes>
        0 -1 98523 -743408483 -1221117131 2063499255 507130097
        -559239176 -71600336 -14090498 -1364574209</internalNodes>
      <leafValues>
        -5.6141000986099243e-001 6.0219609737396240e-001</leafValues></_>
    <_>
      <internalNodes>
        0 -1 145073 -16784469 -105651302 1635602513 -682798189
        -1026690598 -2139053939 -792008291 1359735695</internalNodes>
      <leafValues>
        -6.2320297956466675e-001 5.4406023025512695e-001</leafValues></_></weakClassifiers></stage6>
</opencv_storage>
