<?xml version="1.0"?>
<opencv_storage>
<stage0>
  <maxWeakCount>14</maxWeakCount>
  <stageThreshold>-8.6737579107284546e-001</stageThreshold>
  <weakClassifiers>
    <_>
      <internalNodes>
        0 -1 135792 -100926534 -71606598 -16777541 -103288013 -823132229
        -1090520517 -285233473 150731451</internalNodes>
      <leafValues>
        -5.7824426889419556e-001 8.2274591922760010e-001</leafValues></_>
    <_>
      <internalNodes>
        0 -1 124376 -750529797 -641138480 26579803 1427215251 -876489798
        -586522440 550023899 -611077381</internalNodes>
      <leafValues>
        -4.4528439640998840e-001 8.1607151031494141e-001</leafValues></_>
    <_>
      <internalNodes>
        0 -1 51896 -873993505 28462322 -285284353 154402487 -834164134
        174182089 -2021931317 185858987</internalNodes>
      <leafValues>
        -5.3108632564544678e-001 6.2343305349349976e-001</leafValues></_>
    <_>
      <internalNodes>
        0 -1 127800 -581960885 1602332872 1405952699 1373197433
        1661729594 1548261888 848016367 1528029419</internalNodes>
      <leafValues>
        -4.9555170536041260e-001 5.8784955739974976e-001</leafValues></_>
    <_>
      <internalNodes>
        0 -1 33935 -726016577 -578958177 1086249177 1367431353
        -1863039589 -2060974072 -862019905 -552943093</internalNodes>
      <leafValues>
        -3.7543410062789917e-001 7.0201516151428223e-001</leafValues></_>
    <_>
      <internalNodes>
        0 -1 96059 2121188255 869306826 121673397 -798438502 -634479091
        56279353 -1467244034 -87490952</internalNodes>
      <leafValues>
        -5.4645562171936035e-001 4.9505662918090820e-001</leafValues></_>
    <_>
      <internalNodes>
        0 -1 35020 -473700406 -208681530 1343775474 1653830029
        1140900398 50336839 1646457291 1414394187</internalNodes>
      <leafValues>
        -6.7083269357681274e-001 4.0064373612403870e-001</leafValues></_>
    <_>
      <internalNodes>
        0 -1 83160 -278930718 -548533726 1885532851 1471805843
        -1932850976 -833634303 6465459 -619752521</internalNodes>
      <leafValues>
        -4.8746261000633240e-001 5.4431742429733276e-001</leafValues></_>
    <_>
      <internalNodes>
        0 -1 79997 -574304032 -1786232492 -536784754 -2108597989
        -939450086 -771620731 151931355 790177885</internalNodes>
      <leafValues>
        -6.0670614242553711e-001 4.3034082651138306e-001</leafValues></_>
    <_>
      <internalNodes>
        0 -1 142642 -751049509 272977937 -430726051 1532190534
        1558023183 -2004117292 -908738337 1243345627</internalNodes>
      <leafValues>
        -4.9582645297050476e-001 5.3379315137863159e-001</leafValues></_>
    <_>
      <internalNodes>
        0 -1 153042 -1098911057 1936324534 -1359026478 -659669005
        2138566431 1409269622 1593769722 -83953089</internalNodes>
      <leafValues>
        -4.7334018349647522e-001 5.2955722808837891e-001</leafValues></_>
    <_>
      <internalNodes>
        0 -1 79897 -788472646 -664368644 -1351357705 2146377727
        1678009816 -1896987394 -1909393481 925050543</internalNodes>
      <leafValues>
        -4.5779719948768616e-001 5.5319631099700928e-001</leafValues></_>
    <_>
      <internalNodes>
        0 -1 68121 -591180581 -139527452 1090071167 379171573 172018378
        -1433722240 1409929435 -551825025</internalNodes>
      <leafValues>
        -4.2003571987152100e-001 5.9079754352569580e-001</leafValues></_>
    <_>
      <internalNodes>
        0 -1 147552 -1129331678 461504768 -2046820006 2064007312
        -661938070 229249060 1529410010 -665856871</internalNodes>
      <leafValues>
        -5.2073091268539429e-001 4.9223995208740234e-001</leafValues></_></weakClassifiers></stage0>
</opencv_storage>
