<?xml version="1.0"?>
<opencv_storage>
<stage6>
  <maxWeakCount>20</maxWeakCount>
  <stageThreshold>-4.2107501626014709e-001</stageThreshold>
  <weakClassifiers>
    <_>
      <internalNodes>
        0 -1 97402 -930021889 -556212530 -10551297 -2122275 -1400328449
        -542144337 1284018175 1334640815</internalNodes>
      <leafValues>
        -3.3247423171997070e-001 7.5544661283493042e-001</leafValues></_>
    <_>
      <internalNodes>
        0 -1 139970 -2624613 -2116677 -44696289 -713567585 -2115141
        -1107385927 -9323025 -573706769</internalNodes>
      <leafValues>
        -2.9938369989395142e-001 7.5981658697128296e-001</leafValues></_>
    <_>
      <internalNodes>
        0 -1 154643 -23178401 1531862811 -1128451 -604014593 -536881669
        -2359425 -621118722 -97878082</internalNodes>
      <leafValues>
        -4.6229207515716553e-001 4.9969899654388428e-001</leafValues></_>
    <_>
      <internalNodes>
        0 -1 56719 -562041601 -1074397421 -520818951 -785171663
        -385907976 -922777574 -864301329 -143135045</internalNodes>
      <leafValues>
        -3.1536844372749329e-001 6.3625818490982056e-001</leafValues></_>
    <_>
      <internalNodes>
        0 -1 137148 -83900165 -679752995 1348041042 -1855991713
        -663041834 -1686421379 302185179 -29633569</internalNodes>
      <leafValues>
        -3.1794801354408264e-001 6.0396927595138550e-001</leafValues></_>
    <_>
      <internalNodes>
        0 -1 35960 -237030089 -1747021895 1528871674 1207034843
        -1993556178 -1661724618 2080305147 -1392996433</internalNodes>
      <leafValues>
        -4.3810576200485229e-001 4.2344686388969421e-001</leafValues></_>
    <_>
      <internalNodes>
        0 -1 131784 -1465349633 -638715660 -74372613 1878614781
        922809371 -1768691581 -2088134629 -1683223936</internalNodes>
      <leafValues>
        -4.2265170812606812e-001 4.2822483181953430e-001</leafValues></_>
    <_>
      <internalNodes>
        0 -1 159989 -1561535641 -1667567706 711981759 212983679
        364242072 -1367345867 653778875 -33589424</internalNodes>
      <leafValues>
        -4.0117716789245605e-001 4.3985399603843689e-001</leafValues></_>
    <_>
      <internalNodes>
        0 -1 93838 1566105588 1579914204 1103648460 -17049509 -753136277
        -1669343095 -231981705 744041618</internalNodes>
      <leafValues>
        -5.3835606575012207e-001 3.2984477281570435e-001</leafValues></_>
    <_>
      <internalNodes>
        0 -1 127379 1495134559 -788423976 -1148846273 -44242471
        2086549234 467483076 -1865606082 -1079265069</internalNodes>
      <leafValues>
        -3.3128952980041504e-001 5.5796486139297485e-001</leafValues></_>
    <_>
      <internalNodes>
        0 -1 70090 -26279837 1977551703 -767763477 1189365982
        -1285844684 -1704778363 -1728526491 -576153403</internalNodes>
      <leafValues>
        -4.7699478268623352e-001 3.8078284263610840e-001</leafValues></_>
    <_>
      <internalNodes>
        0 -1 125055 1589181943 -489008 -1178931716 -168256423
        -1900467110 531563774 45874171 -1678014209</internalNodes>
      <leafValues>
        -3.3785620331764221e-001 5.6499338150024414e-001</leafValues></_>
    <_>
      <internalNodes>
        0 -1 3001 -1383306373 2031063263 -2108495174 -324349298
        -95302067 272139325 1421226749 -88813332</internalNodes>
      <leafValues>
        -4.3496859073638916e-001 4.3760907649993896e-001</leafValues></_>
    <_>
      <internalNodes>
        0 -1 127709 1002154427 -810952462 1297961240 -858929160
        1028512059 -573923694 -1060824587 -678180429</internalNodes>
      <leafValues>
        -3.9917650818824768e-001 4.7268605232238770e-001</leafValues></_>
    <_>
      <internalNodes>
        0 -1 155044 -33613052 1557813468 -1274438478 -1849558830
        969865808 -31401726 -1475675262 1496382770</internalNodes>
      <leafValues>
        -5.8675998449325562e-001 3.3401072025299072e-001</leafValues></_>
    <_>
      <internalNodes>
        0 -1 160092 -549717249 1591924424 -2103762729 -704970500
        -1435566869 -1950582660 -2124554500 -572537507</internalNodes>
      <leafValues>
        -3.2303142547607422e-001 6.0739308595657349e-001</leafValues></_>
    <_>
      <internalNodes>
        0 -1 110392 -633284110 -105016932 -1000489079 -1111373467
        1795994512 -1700051544 397090175 403393525</internalNodes>
      <leafValues>
        -4.5399034023284912e-001 4.2159819602966309e-001</leafValues></_>
    <_>
      <internalNodes>
        0 -1 15451 -1492255321 -1400130455 1510065664 -1736512794
        1918081879 -1606432199 1879942652 -195570531</internalNodes>
      <leafValues>
        -4.8410436511039734e-001 4.1128620505332947e-001</leafValues></_>
    <_>
      <internalNodes>
        0 -1 110143 -1136656786 -269492901 1929671749 -581921650
        -387237795 -1279459141 -2088919122 -1960366513</internalNodes>
      <leafValues>
        -4.5216861367225647e-001 4.4393271207809448e-001</leafValues></_>
    <_>
      <internalNodes>
        0 -1 134413 -795289829 337092796 1342457747 -344915576 151751455
        -610597704 769914695 1495192295</internalNodes>
      <leafValues>
        -4.8454114794731140e-001 4.1558963060379028e-001</leafValues></_></weakClassifiers></stage6>
</opencv_storage>
