<?xml version="1.0"?>
<opencv_storage>
<stage4>
  <maxWeakCount>27</maxWeakCount>
  <stageThreshold>-7.5104135274887085e-001</stageThreshold>
  <weakClassifiers>
    <_>
      <internalNodes>
        0 -1 89427 1493209596 -71345480 2142961663 1602166527 -146761474
        -1141237038 -542458881 800729786</internalNodes>
      <leafValues>
        -4.9462914466857910e-001 7.3349815607070923e-001</leafValues></_>
    <_>
      <internalNodes>
        0 -1 119797 -116426981 -12605673 2134863679 -2147786 -25182209
        -822362445 -8388673 -319570757</internalNodes>
      <leafValues>
        -4.4173598289489746e-001 6.8172222375869751e-001</leafValues></_>
    <_>
      <internalNodes>
        0 -1 121213 1441780223 -640042517 85791063 366156115 -1904239878
        -895833414 482320077 -1684292677</internalNodes>
      <leafValues>
        -3.3432146906852722e-001 6.5524047613143921e-001</leafValues></_>
    <_>
      <internalNodes>
        0 -1 93201 -1093666885 -572825096 234090984 1022833184 193788743
        -1179520920 596638585 1002043936</internalNodes>
      <leafValues>
        -4.7373148798942566e-001 4.2909398674964905e-001</leafValues></_>
    <_>
      <internalNodes>
        0 -1 74980 2137945973 -19332985 1065365491 661914069 -315214985
        2057536474 200460739 -320937218</internalNodes>
      <leafValues>
        -4.4910335540771484e-001 4.2517304420471191e-001</leafValues></_>
    <_>
      <internalNodes>
        0 -1 112626 -1211722753 -2016423213 1167476925 -1295608923
        -1874906861 -1081365125 -1327145987 -269821188</internalNodes>
      <leafValues>
        -4.3252903223037720e-001 4.3638339638710022e-001</leafValues></_>
    <_>
      <internalNodes>
        0 -1 139745 -357838086 -71247632 -1619443247 -850541455
        -1702167814 -877150031 1091806706 -548416417</internalNodes>
      <leafValues>
        -3.5577735304832458e-001 5.1366484165191650e-001</leafValues></_>
    <_>
      <internalNodes>
        0 -1 151244 -360454352 37039065 513189359 207217083 2062248466
        -1069885322 -635868640 1325201455</internalNodes>
      <leafValues>
        -6.6505604982376099e-001 2.7168157696723938e-001</leafValues></_>
    <_>
      <internalNodes>
        0 -1 89762 -460825712 -19211490 263085211 -1764812588
        -1132430624 -887569827 -368398885 670908071</internalNodes>
      <leafValues>
        -5.0149554014205933e-001 3.3988034725189209e-001</leafValues></_>
    <_>
      <internalNodes>
        0 -1 97208 -273946901 -546901383 139067135 1366757561 -347410240
        -1693806012 2051915480 -740846701</internalNodes>
      <leafValues>
        -3.2612031698226929e-001 5.0853127241134644e-001</leafValues></_>
    <_>
      <internalNodes>
        0 -1 23550 -22042262 -1351756663 1376997874 -218953571
        1972393598 2063688776 1998713506 1951788655</internalNodes>
      <leafValues>
        -6.0713368654251099e-001 2.8166025876998901e-001</leafValues></_>
    <_>
      <internalNodes>
        0 -1 124595 -25447348 452711247 723001997 -608603490 1753333342
        2062600900 1384177734 1541330229</internalNodes>
      <leafValues>
        -4.9756699800491333e-001 2.9188254475593567e-001</leafValues></_>
    <_>
      <internalNodes>
        0 -1 22580 2131710182 -1903995446 1640338666 -293681354
        1608400860 587976506 862209232 1164893127</internalNodes>
      <leafValues>
        -5.7793259620666504e-001 2.3742784559726715e-001</leafValues></_>
    <_>
      <internalNodes>
        0 -1 129495 -1095232615 666838430 861271997 930027461 977990967
        1923582775 783784061 -1116959956</internalNodes>
      <leafValues>
        -4.6118116378784180e-001 3.0473989248275757e-001</leafValues></_>
    <_>
      <internalNodes>
        0 -1 72350 -441812400 -1824786973 352764516 1681038250 18440
        -1008040574 -2043830017 1156586239</internalNodes>
      <leafValues>
        -5.8157563209533691e-001 2.2093425691127777e-001</leafValues></_>
    <_>
      <internalNodes>
        0 -1 112147 340024565 578204799 -531527049 684332913 -1189072557
        1918050432 -1747290761 -1498404560</internalNodes>
      <leafValues>
        -5.6566935777664185e-001 2.1599733829498291e-001</leafValues></_>
    <_>
      <internalNodes>
        0 -1 128217 -807742536 1599246376 10076184 -2047236912
        -1726957437 329885868 701283631 -582104689</internalNodes>
      <leafValues>
        -3.4801083803176880e-001 3.6201488971710205e-001</leafValues></_>
    <_>
      <internalNodes>
        0 -1 155535 -1978928390 -811695952 277569777 -1054355183
        868438199 1086218762 1321937683 -841491217</internalNodes>
      <leafValues>
        -3.7498372793197632e-001 3.2112118601799011e-001</leafValues></_>
    <_>
      <internalNodes>
        0 -1 121445 -720025596 -129793068 -179260198 1313562011
        -800403452 -1263451120 978776827 1345583791</internalNodes>
      <leafValues>
        -5.4971265792846680e-001 2.0433868467807770e-001</leafValues></_>
    <_>
      <internalNodes>
        0 -1 83569 -1947469182 -225805920 -987988429 87937077 -880190853
        -1896930582 134058206 -413156673</internalNodes>
      <leafValues>
        -2.9241567850112915e-001 3.6165529489517212e-001</leafValues></_>
    <_>
      <internalNodes>
        0 -1 153224 -370165933 1083153434 -553331236 277222110
        -880060094 1344473347 2055648138 -1171702819</internalNodes>
      <leafValues>
        -4.1092920303344727e-001 2.4106436967849731e-001</leafValues></_>
    <_>
      <internalNodes>
        0 -1 102613 -45023815 -67257092 -1110466561 -536912641
        -1357840391 -67338244 305838046 -1145329112</internalNodes>
      <leafValues>
        -1.6093292832374573e-001 5.7148349285125732e-001</leafValues></_>
    <_>
      <internalNodes>
        0 -1 161507 -617216555 28111738 1073655531 -1083417730
        1189600660 1616205823 2139076633 -2109014703</internalNodes>
      <leafValues>
        -2.9149153828620911e-001 3.0940315127372742e-001</leafValues></_>
    <_>
      <internalNodes>
        0 -1 68859 -410821942 -1218711520 353792002 1420038157
        1246659170 12748930 77820904 1347872780</internalNodes>
      <leafValues>
        -5.2115023136138916e-001 1.5802142024040222e-001</leafValues></_>
    <_>
      <internalNodes>
        0 -1 118106 503859252 -1745840875 -385841506 -1026881904
        1476131660 681091562 -2070605985 738076987</internalNodes>
      <leafValues>
        -4.7300687432289124e-001 1.6004118323326111e-001</leafValues></_>
    <_>
      <internalNodes>
        0 -1 161523 -196756613 -658776130 -1142228332 2134276268
        729386970 1971007351 1865914275 -1008920475</internalNodes>
      <leafValues>
        -2.0784205198287964e-001 3.5156744718551636e-001</leafValues></_>
    <_>
      <internalNodes>
        0 -1 24240 1974273028 714940568 -657200528 -489340193 817990417
        1160350104 2035231741 -1937710599</internalNodes>
      <leafValues>
        -4.7466641664505005e-001 1.6605822741985321e-001</leafValues></_></weakClassifiers></stage4>
</opencv_storage>
