<?xml version="1.0"?>
<opencv_storage>
<stage5>
  <maxWeakCount>20</maxWeakCount>
  <stageThreshold>-6.7090708017349243e-001</stageThreshold>
  <weakClassifiers>
    <_>
      <internalNodes>
        0 -1 93124 -1147622721 -67322881 -578550789 -671044423
        -1388631297 -84105025 -604786689 -7853329</internalNodes>
      <leafValues>
        -3.8393253087997437e-001 7.6461166143417358e-001</leafValues></_>
    <_>
      <internalNodes>
        0 -1 112783 12268543 993998847 259981311 -4522306 670515199
        -134250753 1297407965 -1433761656</internalNodes>
      <leafValues>
        -4.9527499079704285e-001 5.5147510766983032e-001</leafValues></_>
    <_>
      <internalNodes>
        0 -1 62689 -36193637 -159815 -847832917 -642036069 -868317538
        -1997304794 -851592257 -838873169</internalNodes>
      <leafValues>
        -3.6479136347770691e-001 6.5846598148345947e-001</leafValues></_>
    <_>
      <internalNodes>
        0 -1 157152 -4464645 -812854592 273994691 -539626340 -1347946241
        -1409122102 121894799 -536882689</internalNodes>
      <leafValues>
        -2.8951567411422729e-001 6.9076162576675415e-001</leafValues></_>
    <_>
      <internalNodes>
        0 -1 28351 -405800978 -1360537809 1188198912 -93398538
        -1586806015 1161016260 1879527539 2010609118</internalNodes>
      <leafValues>
        -6.6442698240280151e-001 3.0319252610206604e-001</leafValues></_>
    <_>
      <internalNodes>
        0 -1 118328 605093887 -85140232 666877815 -547400276 -1183155461
        -2228548 1000898542 -1364411972</internalNodes>
      <leafValues>
        -3.8362288475036621e-001 5.2211958169937134e-001</leafValues></_>
    <_>
      <internalNodes>
        0 -1 79951 -226833671 1658011717 148036759 -2142181289
        1871332951 405946627 2015165095 1295646703</internalNodes>
      <leafValues>
        -5.8888465166091919e-001 3.1608483195304871e-001</leafValues></_>
    <_>
      <internalNodes>
        0 -1 92800 -611265636 -1394961963 -157256238 -841235363
        -112693421 2033170847 -1958893707 -741472193</internalNodes>
      <leafValues>
        -4.5771950483322144e-001 4.1340520977973938e-001</leafValues></_>
    <_>
      <internalNodes>
        0 -1 29510 -285213718 1777189774 -1089251696 -2167868
        -1793531426 -811612607 1652626903 1373044678</internalNodes>
      <leafValues>
        -5.2231550216674805e-001 3.7444308400154114e-001</leafValues></_>
    <_>
      <internalNodes>
        0 -1 154993 -91786301 1397283970 602494319 274198012 1761805107
        1852969182 1043561882 -750076934</internalNodes>
      <leafValues>
        -5.0063860416412354e-001 3.9607745409011841e-001</leafValues></_>
    <_>
      <internalNodes>
        0 -1 18955 -1443437385 585562594 1309113608 -2111511886
        1532585851 -1004811786 1054243838 -1372788172</internalNodes>
      <leafValues>
        -6.0604751110076904e-001 3.3413428068161011e-001</leafValues></_>
    <_>
      <internalNodes>
        0 -1 106471 -145204112 -820232040 438339699 137368588
        -1693917494 -1342142462 672217975 1460871163</internalNodes>
      <leafValues>
        -6.3003361225128174e-001 3.1678748130798340e-001</leafValues></_>
    <_>
      <internalNodes>
        0 -1 158590 -591400102 1539797100 1128878832 1397604763
        -1814078262 -45090194 1439621339 -807470889</internalNodes>
      <leafValues>
        -4.0795633196830750e-001 5.2464854717254639e-001</leafValues></_>
    <_>
      <internalNodes>
        0 -1 30021 720302899 -2097893087 -879776826 1920709619 684527111
        1119009587 -1200972829 -120450771</internalNodes>
      <leafValues>
        -5.4456400871276855e-001 3.6928716301918030e-001</leafValues></_>
    <_>
      <internalNodes>
        0 -1 34615 -1307611397 1365206747 470504439 -1315145809
        -477639307 1646975528 -1850916637 1426909312</internalNodes>
      <leafValues>
        -5.3566497564315796e-001 3.6979132890701294e-001</leafValues></_>
    <_>
      <internalNodes>
        0 -1 162244 -1084525829 -111950463 101663735 -1790360321
        -715132786 2135915634 1511978367 -678496269</internalNodes>
      <leafValues>
        -3.5784953832626343e-001 5.8361732959747314e-001</leafValues></_>
    <_>
      <internalNodes>
        0 -1 26478 -1687336080 894824512 264475923 1586433909
        -2083016678 1461086007 1238333663 530184018</internalNodes>
      <leafValues>
        -5.2668476104736328e-001 3.8791131973266602e-001</leafValues></_>
    <_>
      <internalNodes>
        0 -1 52771 -2029022606 27960736 -2080158842 -153110500 957848243
        170265280 1136898661 1468257480</internalNodes>
      <leafValues>
        -5.3012675046920776e-001 3.9230573177337646e-001</leafValues></_>
    <_>
      <internalNodes>
        0 -1 121223 1188059391 -1694191386 1271784097 1486879231
        2053812043 1456388640 535391163 -44184959</internalNodes>
      <leafValues>
        -4.6080261468887329e-001 4.4001069664955139e-001</leafValues></_>
    <_>
      <internalNodes>
        0 -1 114504 -727688600 -1484649298 2092553157 -319822569
        527071095 -912675583 -216458757 669910861</internalNodes>
      <leafValues>
        -6.3919693231582642e-001 3.0969947576522827e-001</leafValues></_></weakClassifiers></stage5>
</opencv_storage>
