<?xml version="1.0"?>
<opencv_storage>
<stage2>
  <maxWeakCount>10</maxWeakCount>
  <stageThreshold>-2.6830804347991943e-001</stageThreshold>
  <weakClassifiers>
    <_>
      <internalNodes>
        0 -1 101827 -1375688017 -101139713 -45831233 -42942593 -37967105
        -349441 -1073763589 -87105</internalNodes>
      <leafValues>
        -5.9865772724151611e-001 7.9468441009521484e-001</leafValues></_>
    <_>
      <internalNodes>
        0 -1 72160 -4406 -195362639 -645332641 1561719583 -2078833942
        -844365669 -866661637 1601416882</internalNodes>
      <leafValues>
        -6.8699461221694946e-001 6.5019530057907104e-001</leafValues></_>
    <_>
      <internalNodes>
        0 -1 46107 -6556678 -1882206072 -725367341 -639647296
        -1962218501 -1962696821 1148691387 -552610566</internalNodes>
      <leafValues>
        -6.5771234035491943e-001 6.1400932073593140e-001</leafValues></_>
    <_>
      <internalNodes>
        0 -1 156544 -681615531 -782806507 -511607713 -783690533
        -229386414 1100713427 -560215314 -927008033</internalNodes>
      <leafValues>
        -6.6570585966110229e-001 5.9118211269378662e-001</leafValues></_>
    <_>
      <internalNodes>
        0 -1 127709 -6292997 -608437832 1977098650 -678571510
        -1681204753 -842466888 210742739 -606080065</internalNodes>
      <leafValues>
        -5.1099419593811035e-001 7.0996093750000000e-001</leafValues></_>
    <_>
      <internalNodes>
        0 -1 42474 -696516666 565318121 -1270010897 432660815
        -1159104569 -1165270245 -70587393 1003484106</internalNodes>
      <leafValues>
        -7.0408207178115845e-001 5.0717115402221680e-001</leafValues></_>
    <_>
      <internalNodes>
        0 -1 124825 -571474689 -651395664 1335874530 1441756635
        -1863405335 -838156882 368309757 -620333328</internalNodes>
      <leafValues>
        -6.0788691043853760e-001 6.2034642696380615e-001</leafValues></_>
    <_>
      <internalNodes>
        0 -1 51683 -33555137 -1111544257 -318806985 -63079374
        -2064357185 -1392596394 -1396836801 -1087684814</internalNodes>
      <leafValues>
        -5.9582811594009399e-001 6.2248796224594116e-001</leafValues></_>
    <_>
      <internalNodes>
        0 -1 153270 -671261604 1595887646 -1312432673 403765501
        -79504248 -644129656 -667168853 411614635</internalNodes>
      <leafValues>
        -8.5901731252670288e-001 4.4810080528259277e-001</leafValues></_>
    <_>
      <internalNodes>
        0 -1 128390 -149291048 -775616272 957095064 -36331531
        -1359283299 -13653841 139186159 -1111499329</internalNodes>
      <leafValues>
        -6.2071031332015991e-001 6.3193571567535400e-001</leafValues></_></weakClassifiers></stage2>
</opencv_storage>
