<?xml version="1.0"?>
<opencv_storage>
<stage4>
  <maxWeakCount>12</maxWeakCount>
  <stageThreshold>-4.6547349542379379e-002</stageThreshold>
  <weakClassifiers>
    <_>
      <internalNodes>
        0 -1 56774 -822088961 -822087681 -8425729 1937112951 -285242627
        -822104322 -293648801 -76288005</internalNodes>
      <leafValues>
        -4.2712438106536865e-001 8.2959967851638794e-001</leafValues></_>
    <_>
      <internalNodes>
        0 -1 24606 807665919 -8978305 -64856129 -9674753 -1607322905
        -1078380833 2117525247 -14881537</internalNodes>
      <leafValues>
        -4.5432740449905396e-001 7.3097658157348633e-001</leafValues></_>
    <_>
      <internalNodes>
        0 -1 23251 -8214 -338834674 387150720 -436603402 -1042549793
        17712015 1439936409 1464331898</internalNodes>
      <leafValues>
        -7.1598148345947266e-001 4.8634043335914612e-001</leafValues></_>
    <_>
      <internalNodes>
        0 -1 124376 -808324097 1541134585 270373883 1566047195 -69357061
        -632064592 47231995 -610552837</internalNodes>
      <leafValues>
        -4.9896782636642456e-001 6.5711110830307007e-001</leafValues></_>
    <_>
      <internalNodes>
        0 -1 119957 -638455337 -1962936321 -1078075393 -1969553921
        -3151873 -1073750081 -1157693513 -2293764</internalNodes>
      <leafValues>
        -5.0806355476379395e-001 6.6377937793731689e-001</leafValues></_>
    <_>
      <internalNodes>
        0 -1 114420 1464006417 -2011892471 1091932437 -577272915
        -206822982 -1298218575 156946670 -1711287361</internalNodes>
      <leafValues>
        -5.8713638782501221e-001 5.6691932678222656e-001</leafValues></_>
    <_>
      <internalNodes>
        0 -1 124728 -2032496897 1162731871 120963671 201322141
        -1291519366 765739656 -475334006 -50033957</internalNodes>
      <leafValues>
        -6.1356365680694580e-001 5.7011044025421143e-001</leafValues></_>
    <_>
      <internalNodes>
        0 -1 102732 271602897 1040187636 -704750081 599433688 -360131352
        -147285350 -1451034440 179190968</internalNodes>
      <leafValues>
        -7.6170599460601807e-001 4.6265044808387756e-001</leafValues></_>
    <_>
      <internalNodes>
        0 -1 73919 -171446042 -206377814 1611251808 1428111866
        2102366671 -1043611318 899661295 -716964401</internalNodes>
      <leafValues>
        -6.5215092897415161e-001 5.2676945924758911e-001</leafValues></_>
    <_>
      <internalNodes>
        0 -1 41532 -33560777 -272941071 1710702399 -176914433
        -1073834337 -1460077516 2146877373 -318898657</internalNodes>
      <leafValues>
        -5.1201534271240234e-001 7.0675402879714966e-001</leafValues></_>
    <_>
      <internalNodes>
        0 -1 144091 -1419772997 1495732633 -989211907 -655764743
        -1065145462 -1174326271 -489765954 -1929510999</internalNodes>
      <leafValues>
        -6.4399158954620361e-001 5.3088873624801636e-001</leafValues></_>
    <_>
      <internalNodes>
        0 -1 102248 -220923172 -27459374 -255828852 -782940805
        -109991233 -1366769493 -1112802593 278381967</internalNodes>
      <leafValues>
        -7.5505506992340088e-001 4.7177001833915710e-001</leafValues></_></weakClassifiers></stage4>
</opencv_storage>
