<?xml version="1.0"?>
<opencv_storage>
<stage5>
  <maxWeakCount>12</maxWeakCount>
  <stageThreshold>-3.2347834110260010e-001</stageThreshold>
  <weakClassifiers>
    <_>
      <internalNodes>
        0 -1 137182 -212608751 -11033669 -582627051 -10502305 -2097153
        -1164068559 -671221761 -1713373329</internalNodes>
      <leafValues>
        -4.4324970245361328e-001 7.9334747791290283e-001</leafValues></_>
    <_>
      <internalNodes>
        0 -1 34819 -1049618 -286277649 -919710 -268500994 -133639
        1288544254 -411568641 -134218246</internalNodes>
      <leafValues>
        -5.5858820676803589e-001 6.4190095663070679e-001</leafValues></_>
    <_>
      <internalNodes>
        0 -1 123781 -69361912 -46428129 -1120652519 -67521775 -140276801
        -22405493 -1431583553 -2000831061</internalNodes>
      <leafValues>
        -6.7326664924621582e-001 5.1083576679229736e-001</leafValues></_>
    <_>
      <internalNodes>
        0 -1 645 823321215 1475737823 -1190702849 -38679901 1915175085
        1903239315 -422903553 -750435644</internalNodes>
      <leafValues>
        -6.0900914669036865e-001 5.0281667709350586e-001</leafValues></_>
    <_>
      <internalNodes>
        0 -1 54404 -301799693 -1353735170 -2088527873 771171951
        -359634459 -605421355 -759991949 -852019373</internalNodes>
      <leafValues>
        -6.4039373397827148e-001 4.9180820584297180e-001</leafValues></_>
    <_>
      <internalNodes>
        0 -1 113529 1541266907 -1680004200 534305787 939011035 -69215266
        -1090662152 -1210467622 -1142180886</internalNodes>
      <leafValues>
        -5.4258638620376587e-001 6.3811349868774414e-001</leafValues></_>
    <_>
      <internalNodes>
        0 -1 120306 -1176897025 1068997375 -107723297 1123996156
        -272918605 -1144290595 -69102600 -288838408</internalNodes>
      <leafValues>
        -6.1156868934631348e-001 5.7955539226531982e-001</leafValues></_>
    <_>
      <internalNodes>
        0 -1 117773 -740360226 2113916284 1753898750 261873631
        -811608364 -8691165 -1215306085 2052679723</internalNodes>
      <leafValues>
        -7.0752471685409546e-001 5.1848882436752319e-001</leafValues></_>
    <_>
      <internalNodes>
        0 -1 46917 -4721718 54722146 -686865933 -978480147 -2104772945
        1120897275 272880619 1506800092</internalNodes>
      <leafValues>
        -6.6964900493621826e-001 5.1652133464813232e-001</leafValues></_>
    <_>
      <internalNodes>
        0 -1 140124 -236195426 -846220868 -2135837456 1135342334
        -150996034 -1903309585 1140322546 -606343689</internalNodes>
      <leafValues>
        -5.5285876989364624e-001 6.0262000560760498e-001</leafValues></_>
    <_>
      <internalNodes>
        0 -1 131336 1381757562 -1277443378 -647957966 837968012
        -267395060 324182603 -1338459489 1003334133</internalNodes>
      <leafValues>
        -7.7962696552276611e-001 4.4861802458763123e-001</leafValues></_>
    <_>
      <internalNodes>
        0 -1 125197 -1580731427 -638524828 1032960477 1039002109
        545760156 -340921193 263162015 -644043361</internalNodes>
      <leafValues>
        -5.8472299575805664e-001 6.0819512605667114e-001</leafValues></_></weakClassifiers></stage5>
</opencv_storage>
