<?xml version="1.0"?>
<opencv_storage>
<cascade>
  <stageType>BOOST</stageType>
  <featureType>LBP</featureType>
  <height>50</height>
  <width>50</width>
  <stageParams>
    <boostType>GAB</boostType>
    <minHitRate>9.9000000953674316e-001</minHitRate>
    <maxFalseAlarm>3.0000001192092896e-001</maxFalseAlarm>
    <weightTrimRate>9.4999999999999996e-001</weightTrimRate>
    <maxDepth>1</maxDepth>
    <maxWeakCount>100</maxWeakCount></stageParams>
  <featureParams>
    <maxCatCount>256</maxCatCount>
    <featSize>1</featSize></featureParams>
  <stageNum>6</stageNum>
  <stages>
    <!-- stage 0 -->
    <_>
      <maxWeakCount>2</maxWeakCount>
      <stageThreshold>-1.3770262897014618e-001</stageThreshold>
      <weakClassifiers>
        <_>
          <internalNodes>
            0 -1 4 -808465153 -10775221 -1660823209 -146040545
            -108269845 -611663457 -1013190401 -2097153</internalNodes>
          <leafValues>
            -9.9190282821655273e-001 9.2233008146286011e-001</leafValues></_>
        <_>
          <internalNodes>
            0 -1 6 -581446657 -4206187 -1858924065 -552494637
            -1399940929 -71710067 -1433802497 2146425531</internalNodes>
          <leafValues>
            -9.9595129489898682e-001 8.5420018434524536e-001</leafValues></_></weakClassifiers></_>
    <!-- stage 1 -->
    <_>
      <maxWeakCount>1</maxWeakCount>
      <stageThreshold>7.9279279708862305e-001</stageThreshold>
      <weakClassifiers>
        <_>
          <internalNodes>
            0 -1 2 -8389633 -77597857 -774647265 -201895341 -238289985
            -570316670 -242487313 2145385439</internalNodes>
          <leafValues>
            -9.9581587314605713e-001 7.9279279708862305e-001</leafValues></_></weakClassifiers></_>
    <!-- stage 2 -->
    <_>
      <maxWeakCount>2</maxWeakCount>
      <stageThreshold>-1.8463817238807678e-001</stageThreshold>
      <weakClassifiers>
        <_>
          <internalNodes>
            0 -1 7 -16589 -2113057 -317992065 -7089705 -62395393
            -6307415 -887889201 -263169</internalNodes>
          <leafValues>
            -9.9064934253692627e-001 8.0800002813339233e-001</leafValues></_>
        <_>
          <internalNodes>
            0 -1 0 -721424641 -3678753 -129775201 -11291769 -90969361
            -105723833 -7352321 -1049601</internalNodes>
          <leafValues>
            -9.4758468866348267e-001 8.0601119995117188e-001</leafValues></_></weakClassifiers></_>
    <!-- stage 3 -->
    <_>
      <maxWeakCount>2</maxWeakCount>
      <stageThreshold>-3.1280142068862915e-001</stageThreshold>
      <weakClassifiers>
        <_>
          <internalNodes>
            0 -1 9 -536883458 -78444937 -1727672099 -9047045 -71054401
            -1148467029 -34607137 -785</internalNodes>
          <leafValues>
            -9.4927537441253662e-001 7.3041474819183350e-001</leafValues></_>
        <_>
          <internalNodes>
            0 -1 10 -1 -35662849 -174459425 -2049 -101975553 -68181823
            -7676929 2147482623</internalNodes>
          <leafValues>
            -9.8891407251358032e-001 6.3647395372390747e-001</leafValues></_></weakClassifiers></_>
    <!-- stage 4 -->
    <_>
      <maxWeakCount>2</maxWeakCount>
      <stageThreshold>-1.4063505828380585e-001</stageThreshold>
      <weakClassifiers>
        <_>
          <internalNodes>
            0 -1 3 -1 -639635238 1497759608 -35794100 -108273461
            -842301054 -136318769 -33686801</internalNodes>
          <leafValues>
            -9.0378004312515259e-001 8.4010487794876099e-001</leafValues></_>
        <_>
          <internalNodes>
            0 -1 5 -605041921 -3019017 -348783169 -6315087 -336802070
            -72165126 -608572417 -5157</internalNodes>
          <leafValues>
            -9.3002283573150635e-001 7.6314502954483032e-001</leafValues></_></weakClassifiers></_>
    <!-- stage 5 -->
    <_>
      <maxWeakCount>2</maxWeakCount>
      <stageThreshold>-2.0048002898693085e-001</stageThreshold>
      <weakClassifiers>
        <_>
          <internalNodes>
            0 -1 8 -11411969 -2240047 -1622278177 -67774471 -88016390
            -89466744 -1146897670 -281606</internalNodes>
          <leafValues>
            -9.0524190664291382e-001 7.3039215803146362e-001</leafValues></_>
        <_>
          <internalNodes>
            0 -1 1 -786696225 -7122475 -1861642785 -543942371 -610100993
            -1080491800 -1391892289 1070320059</internalNodes>
          <leafValues>
            -9.3087220191955566e-001 7.3049592971801758e-001</leafValues></_></weakClassifiers></_></stages>
  <features>
    <_>
      <rect>
        0 0 9 13</rect></_>
    <_>
      <rect>
        1 47 16 1</rect></_>
    <_>
      <rect>
        2 2 2 5</rect></_>
    <_>
      <rect>
        3 10 5 13</rect></_>
    <_>
      <rect>
        7 1 10 13</rect></_>
    <_>
      <rect>
        8 11 9 7</rect></_>
    <_>
      <rect>
        11 1 12 2</rect></_>
    <_>
      <rect>
        20 4 10 10</rect></_>
    <_>
      <rect>
        22 17 5 3</rect></_>
    <_>
      <rect>
        23 22 2 2</rect></_>
    <_>
      <rect>
        29 0 7 4</rect></_></features></cascade>
</opencv_storage>
